10 4800
This-was-the-BEST-massage-I've-ever-had. 0.01505701 -0.00839289 -0.00302448 -0.01039499 0.00119720 0.00474775 0.01449759 -0.09646920 -0.00559337 0.00005114 0.02443098 -0.00002101 0.00688489 -0.00060226 0.00370278 -0.00618849 -0.00907866 0.00038907 -0.00573796 0.01779479 0.00726135 0.00048739 0.00145221 -0.00117717 0.00119162 -0.00296255 -0.02780763 -0.00953110 0.00403237 0.00916966 0.00521289 -0.00009713 0.00845734 -0.00323660 -0.02008880 -0.02639087 -0.00589706 0.01153560 -0.00296097 -0.00013513 -0.00161317 -0.00081034 -0.00110576 -0.09438084 0.02643820 0.02675905 0.00702782 0.00717744 0.00117941 0.01830530 0.08970106 -0.00871833 -0.00282414 0.00065430 -0.00816296 -0.00331775 -0.00438759 -0.02653422 -0.00496117 0.00098361 0.01258657 0.00355561 -0.00208512 -0.00853190 0.00215225 0.00722052 0.00941689 0.00029109 -0.01727204 0.00450678 0.01072396 0.01053244 -0.08276667 0.00235337 0.00220216 0.00274409 0.00501897 -0.00544275 -0.00342322 0.00480692 -0.02016600 -0.00097779 0.00106495 0.00190660 -0.00208543 -0.00245632 -0.01222166 -0.00232970 -0.00346199 -0.00223038 0.00313072 -0.00047902 -0.00204371 0.02469156 -0.00883854 -0.00272006 0.00235639 -0.01470010 -0.00012144 0.01597193 0.00426816 0.00019402 0.00192348 -0.00279539 -0.04689698 0.00846090 -0.01357208 -0.00067279 -0.00539695 -0.00035558 0.00103337 -0.00595794 -0.00430110 -0.00728494 0.02379390 0.01618771 0.01897351 -0.08768961 -0.09344944 -0.00325356 -0.00905653 0.00268237 -0.00617358 -0.00497148 -0.00138551 0.00190179 0.11226409 0.01760810 -0.00797502 -0.00351566 0.00238243 0.00516806 0.00111105 0.00548618 -0.00536354 0.00388358 -0.00800302 0.00579498 0.00494743 -0.01044621 0.00404096 0.00301479 0.01398622 -0.00567621 0.01070976 -0.02146504 -0.00580838 -0.00065156 0.00016891 -0.00715985 -0.00784542 -0.00126060 0.00615743 -0.00295385 0.00302097 0.00252168 0.00148013 0.00395036 0.00396772 -0.00991353 0.00511542 0.00374565 -0.00228559 -0.03378058 0.01013165 -0.02139812 0.00161410 -0.11989467 0.00422654 0.00796932 -0.00328640 0.00266113 0.01170223 -0.00163602 0.01017695 -0.00066572 -0.00049516 -0.00700748 0.00234439 -0.00748010 0.01129997 0.00752857 -0.00253761 -0.00806193 0.00824737 0.12348965 0.00384081 0.00021209 0.00490317 -0.00120589 0.00542137 -0.01592940 -0.00353006 -0.00782900 0.00746601 0.00897977 0.00364105 -0.01630282 -0.00287063 -0.00107777 -0.00714643 0.00259741 0.01280325 0.00326069 0.00345714 0.00954080 0.00632399 0.03337851 -0.01035509 -0.00212678 -0.00674362 0.00241673 -0.00075296 -0.00590849 -0.00476066 0.02907114 0.00521333 -0.00463009 0.00483503 -0.00156806 -0.00010833 0.01622469 0.00055194 0.00108578 -0.00942978 0.00106412 0.00634763 -0.00210711 -0.04820253 0.00772005 0.00069459 -0.00586209 0.00184276 -0.00720561 -0.00456430 -0.00212798 -0.00004278 0.00565555 -0.00043183 -0.11650257 -0.00725835 -0.00066671 0.01250715 0.00071197 0.01110151 0.00708638 -0.00182126 0.00694833 0.00324690 -0.00745276 0.01287140 0.01059075 0.00163060 0.00520548 0.00971315 -0.00882643 -0.00258843 -0.00099928 0.12360492 0.00627589 -0.00037743 0.00513111 0.00030884 0.00099055 0.00280743 0.00185520 0.00943856 0.00922493 0.00229778 0.01620138 -0.04816626 0.00258338 -0.00931158 0.00156211 0.00955673 0.01711097 0.01554928 0.02168355 0.00799602 -0.00494927 0.00476124 0.02969899 -0.02770346 -0.00244323 0.02998999 0.00991442 -0.01016173 0.00975503 -0.00112024 0.00724314 -0.01375751 0.00711343 0.00268907 0.00420548 0.00406733 -0.00288403 0.00297913 -0.00343351 0.01810754 0.02204960 0.03628242 -0.04295995 0.00600325 0.01774370 0.01249641 -0.00439662 0.00419744 -0.01681610 0.02400600 -0.00231893 -0.02120645 0.00109042 -0.00017605 -0.00555359 0.00292181 -0.00413967 -0.00326493 0.00049450 0.01262807 0.01460037 -0.01119084 -0.00024174 -0.00289684 0.00204451 -0.05104770 0.00455346 -0.00377987 0.02581780 -0.00170535 0.00114676 -0.02233507 0.00014444 -0.00807445 0.00741429 -0.00334826 0.00358126 -0.00693356 0.00632966 0.00142581 -0.01307950 -0.03507282 -0.00578664 -0.00273507 0.00629790 -0.00505473 0.01046880 0.00330069 -0.00453654 -0.00891110 0.02292051 0.01399667 0.00213655 0.01082189 0.02532243 -0.00107400 -0.00116472 -0.00005340 0.00206511 -0.00246969 0.00173191 0.00204918 0.00151990 -0.00251246 0.00882516 0.00375411 -0.01619389 0.01253218 0.01985341 0.00147677 0.00034601 0.00009114 0.00616883 0.00649170 -0.12329609 -0.00941486 0.00860638 0.00249609 -0.01818082 0.00660156 0.00623430 0.12323222 0.01051833 -0.00841354 -0.00064087 0.00031836 0.01308694 -0.00465639 -0.00076544 -0.00024814 0.01243461 -0.00819381 0.00465863 -0.01686432 0.00123010 0.02743256 -0.00054914 -0.00032018 -0.00157361 0.00440326 0.03160803 0.01731890 0.00532867 0.00305273 -0.00544480 -0.02227233 0.00164592 -0.01057404 -0.00549341 0.00338953 0.00640158 0.00068006 -0.00190036 0.00196622 0.00176307 0.00155562 -0.00175505 0.01931275 0.01028135 0.00051737 0.03088776 -0.00063624 0.00323025 -0.00105210 0.00078045 0.01073085 0.01891150 -0.00088726 -0.00140389 0.00835388 -0.00768390 -0.00216133 0.00064098 -0.00423276 0.00799526 0.00267282 -0.01143646 -0.00394670 -0.01842314 0.00233262 -0.00049406 0.01573481 -0.00256377 -0.02056829 -0.01084183 -0.00350709 0.00112486 0.00235323 -0.00607831 -0.01068836 0.00763727 -0.00542740 0.00390492 0.00497488 0.01300752 -0.00198718 -0.00019992 -0.01071896 -0.00144754 0.00521409 0.01084440 -0.00332726 -0.00030300 -0.02177051 -0.00747970 -0.01939251 -0.00395995 0.05955068 0.00191636 -0.00388965 0.00306170 0.01830223 0.00009463 -0.00123494 0.00847410 0.00024575 0.00050964 0.00643653 0.00260460 0.01950322 -0.01281748 0.01204851 -0.00243636 0.00214697 -0.00359941 -0.00216573 -0.00193174 0.00860426 0.00475793 0.04892714 0.00442871 -0.00333734 -0.00030609 0.01564801 -0.01295782 -0.00165144 -0.02930806 -0.00579690 -0.00925327 -0.00204177 0.00397237 0.04502834 -0.01163277 -0.00565962 0.00345180 -0.00331433 0.00266003 0.00611294 -0.00517112 0.01401540 0.01025354 0.00822389 -0.00036500 0.00620687 -0.00327914 -0.00460791 -0.00070933 0.00118750 -0.00456874 -0.00143637 0.01460099 0.00092580 0.05793805 -0.00066347 -0.00002385 0.00020010 -0.00081129 0.00155557 0.00701214 -0.00581566 -0.00145305 -0.12360302 0.00010359 0.02231547 0.01957341 -0.00502364 -0.01047477 -0.00189328 -0.00179740 -0.00381349 -0.01232730 0.00248190 0.00198865 -0.01020064 -0.00417627 0.01246389 0.00815081 -0.01892529 -0.00172906 -0.01152620 -0.00566633 -0.01087456 0.00237016 0.02235828 0.00612981 0.00540382 0.00590541 -0.00112997 -0.01308342 -0.00003885 0.00157891 -0.00547514 0.01653209 -0.00475524 0.00058918 0.12031303 0.01275256 -0.00252288 -0.00414519 0.04379241 -0.00458890 -0.00782716 0.00268215 -0.00651591 0.00043555 0.00520177 -0.02108155 -0.00013400 -0.01844194 0.00119649 -0.00350822 0.00892854 -0.00176677 0.01197233 -0.01008006 -0.00098064 -0.00281455 0.00053812 -0.00909557 -0.00525621 -0.00560197 0.00206227 -0.00060416 -0.00064517 -0.00219008 -0.00181166 0.00378365 -0.00090136 -0.00201527 0.00674289 -0.03661896 -0.00573541 0.00187865 0.00333402 -0.00017070 0.00574342 0.00530023 -0.00019569 -0.00636172 0.00145615 0.00750896 -0.00909356 0.00582274 0.00259289 -0.01730517 0.00698056 -0.00089708 0.00981876 0.00829965 0.01430476 0.00074474 -0.00015736 0.00338014 0.01091692 0.00553316 -0.00303283 0.02262641 0.01082428 -0.00926178 0.01001308 -0.00321680 0.01044121 -0.12333813 0.00056223 0.00898212 -0.00257044 0.00310083 0.01412908 0.00224875 0.00266788 0.01548684 0.00285476 -0.01129624 0.01719562 0.00427038 -0.00185074 -0.00234503 -0.00973256 0.00474907 -0.00751340 -0.01718049 -0.01465550 -0.00142589 -0.00545562 0.00012526 -0.00009687 0.00602398 0.00153064 0.00915063 0.00735156 0.00425586 -0.01447657 -0.01652758 -0.00590583 -0.00612632 0.00669316 0.03237950 0.00505118 -0.00005668 -0.00970190 0.00036256 0.00449378 -0.00424657 -0.00550914 0.03063071 -0.01770258 0.03369163 -0.00412355 -0.01642436 0.00185341 -0.00104150 -0.00079567 0.00732170 0.00742017 -0.00319148 -0.00991884 0.00238342 0.00174431 -0.00225497 -0.01564478 0.00205370 -0.00006692 0.00343317 0.00518340 -0.01000977 -0.00318169 -0.00308603 -0.00000738 -0.00091020 -0.00163558 0.00357932 -0.00287684 -0.01228279 0.00126938 -0.00426590 0.00006046 -0.01085192 0.00117816 0.00247654 0.01242319 0.00171004 -0.00033158 -0.00058355 -0.00092316 -0.00035225 0.00196742 -0.00435407 -0.00331108 0.00614617 0.00448026 0.00468824 0.00225946 -0.00229636 0.01824963 0.01786206 0.00991136 -0.06531440 0.01885040 0.12139789 -0.00356605 0.03160606 0.03614728 -0.00462398 -0.00690169 0.00242279 0.00642962 -0.12344300 -0.01484360 0.01546576 0.00108773 -0.00915675 -0.00451612 0.01808793 -0.00283351 -0.00763613 -0.00651453 0.01345240 -0.00430502 0.02182075 0.00209091 -0.00345835 -0.00792727 0.00181208 0.00183625 0.02201798 0.00058483 -0.00102220 0.08618948 0.02405905 -0.01347542 -0.02634713 0.00463745 -0.09933338 -0.00037127 0.11671630 -0.00403091 0.00732068 -0.01419690 -0.01198389 0.00570834 -0.00300465 0.00136142 -0.00199529 0.00381092 -0.00598874 -0.00904491 -0.01732343 0.00351224 -0.00637223 0.00586610 0.00663732 0.00907378 0.00447753 0.00239451 0.00090505 -0.00652117 0.00576484 0.00464852 -0.03696633 0.01072793 -0.00128037 0.00027312 0.02878775 -0.01558609 0.00912666 0.00983977 0.00507322 -0.00309733 -0.00037485 0.00607383 -0.01034659 -0.01209387 -0.00405830 -0.01631644 -0.00253188 0.01245611 0.00081250 0.01386007 0.00131720 0.00113250 -0.01175667 -0.00233595 -0.07519441 0.01683761 -0.01262447 -0.00127542 0.02632516 -0.00353878 0.00169420 -0.02705022 0.02675093 -0.00415749 -0.00493085 0.01034791 0.02114221 0.00027690 0.00670896 -0.00300326 -0.00065567 -0.00010100 -0.01676570 0.01873963 -0.00480050 -0.00694862 -0.00037199 -0.00023095 0.00076419 -0.00250611 -0.00217996 0.00205361 -0.00826484 -0.00762374 0.00708032 -0.00262933 0.00072613 0.01852792 0.02298466 0.00309647 0.00595301 -0.01053361 0.00522525 -0.00045116 -0.11135545 0.00948549 0.00772784 0.00475706 -0.00710710 0.00267796 0.00910396 -0.01606534 0.00322538 -0.02258790 0.00301985 0.00886821 -0.00229663 0.00634875 0.00957122 0.01011187 -0.00075716 0.00659808 0.01506012 0.01302171 0.00311403 0.00346774 0.00551619 0.02725033 -0.00498286 -0.00747487 0.00108523 -0.00379359 0.05963291 -0.00083643 0.00847241 -0.00432800 0.02256660 0.01553693 0.00844340 -0.02646193 -0.00426477 -0.00389936 -0.00056927 0.01433356 0.01197622 -0.00002645 0.00361331 0.00601681 0.01448465 0.00545727 -0.01664827 0.00936661 -0.00093863 -0.00412574 -0.00459429 -0.00500012 0.00015245 -0.01006578 0.00373766 -0.00633286 0.00226059 0.00280016 0.00147093 0.00116209 -0.00116771 0.00198760 -0.02196972 0.00076710 0.00565349 0.00968983 0.00608969 0.01131391 -0.01324249 0.01821387 0.03603346 0.00473641 -0.00378022 -0.07580423 0.00006232 0.00413785 0.01062389 0.00513628 -0.00340663 -0.00175134 0.00985691 0.01850315 0.00040205 -0.00092004 0.00458391 -0.00278852 0.00244696 -0.00921077 0.01745658 -0.00116947 0.00350351 -0.00156969 -0.00003837 -0.00396059 -0.00210249 0.00474121 0.00092722 -0.00103245 -0.00668433 -0.02595949 0.02336446 -0.00298657 0.00492455 0.00488769 -0.00594530 -0.00499810 0.00133154 -0.00593693 -0.00121774 0.00005284 -0.00639551 -0.00000673 -0.00259771 0.01136676 0.00571103 -0.12360176 -0.00103034 0.00514755 0.01080247 -0.00548565 0.00662034 0.01060913 0.01256282 -0.00516670 0.00080755 -0.00786455 0.00106893 0.02358604 -0.00757893 0.00048413 0.00302429 -0.00146100 0.01164052 0.00376854 0.00619079 -0.00616308 -0.00690738 -0.00521444 -0.00042062 -0.00596924 0.01163356 -0.00893461 -0.00010471 0.00293281 -0.00442470 0.10014776 0.00560511 -0.00145836 -0.00407449 0.00171381 -0.01730181 0.00269458 -0.00252428 -0.00585115 -0.00267460 -0.00055029 -0.00411264 -0.00148951 -0.00296972 -0.00022446 0.00084960 -0.00598962 0.00096818 -0.00641565 0.01617630 0.03383742 -0.00043420 0.00064694 -0.00758637 0.00658560 -0.00660566 0.01326075 -0.02450679 -0.00566818 0.00541943 -0.00160146 -0.00338660 0.00714155 -0.00035568 0.00289845 -0.01342681 0.00797276 0.00018628 -0.01799569 -0.00083634 -0.00546244 0.00993598 -0.02244527 -0.07357884 0.00485023 -0.00843407 0.05935601 0.00265110 0.00039158 0.00595512 -0.01024796 0.01602910 0.00019868 -0.01365122 0.00863594 -0.00037715 0.01786507 0.01960937 -0.00113082 0.00517527 0.00848477 -0.00329623 0.00356909 0.01373172 -0.01471893 -0.00008152 0.01504002 0.01929999 0.00298811 -0.01144078 0.01996450 0.01190019 -0.00108599 -0.00935776 0.00377244 0.00887540 0.01472342 -0.00354585 -0.00854756 0.00421914 0.11034752 -0.01165944 0.06533116 0.00325279 0.00104754 -0.00144768 0.00046202 -0.00591864 0.01506959 0.00499173 0.00215934 0.05147182 -0.00090856 0.01045594 -0.00073547 0.00271001 0.00043336 0.00324204 -0.00295668 -0.01953875 0.01456175 0.00939743 0.01128327 -0.00850769 -0.08296169 -0.00390877 0.00775748 0.00655652 -0.00544110 0.00002682 -0.00228027 -0.00430245 -0.01027425 -0.00810068 0.03283563 -0.00711677 -0.00073324 -0.00287400 -0.00181639 0.00629790 0.00023703 0.00889956 -0.00044497 0.01728464 -0.00387665 0.00265495 0.02853516 0.01374712 -0.04586460 -0.00779703 0.00010418 -0.01310121 -0.01108821 0.00122241 0.00221651 0.00270193 -0.00308888 0.00395319 0.00008411 -0.00075486 -0.00575328 0.01546170 -0.01277397 0.00215644 0.00571401 -0.00996993 -0.00162273 -0.00003880 0.00148455 -0.00900990 -0.02716880 -0.00380672 -0.00696621 -0.00395434 -0.00296687 -0.00812349 0.00087036 -0.00811557 -0.00310100 -0.00868885 0.00071631 0.00837549 -0.00022208 0.01428851 -0.00187338 0.00889877 -0.00422271 -0.00593400 -0.02344912 0.09771986 0.00542646 -0.00344127 0.00327949 -0.00149395 0.00378081 0.00190023 -0.01114918 -0.02657799 0.00383297 0.07904182 -0.01701736 0.01402542 -0.00396183 0.01388433 0.00347813 -0.00084774 -0.00357757 0.00695428 0.00832324 -0.00269910 -0.00380113 -0.04984489 0.00544459 -0.00757942 0.02863767 0.00136702 0.01204063 -0.00022801 0.00065737 -0.00092082 0.00239351 0.01066332 -0.00775718 -0.00592260 -0.00304572 0.00466652 -0.00290581 -0.00228676 0.01153041 0.00463335 -0.00520185 -0.01272253 0.00695503 -0.00199340 0.00247568 0.01612127 0.00165767 0.00004399 -0.02987335 0.00493423 0.00164918 -0.00228139 0.00073321 0.01158820 0.00587772 -0.00187529 0.00113480 0.00468257 0.00160281 0.00430136 0.00505351 -0.00243382 0.00056319 -0.00314808 -0.00035042 -0.00184371 -0.00263264 -0.05867787 -0.00168961 -0.02513402 -0.00112094 0.00201529 0.00235324 0.02194042 0.00759795 0.01715996 0.01023383 0.00917887 0.01334460 -0.00668908 -0.00097120 -0.00075611 -0.00502903 0.00876179 -0.00016956 0.00018766 -0.00216698 -0.02983807 0.00548218 0.00426634 0.01487250 0.00389996 0.00931860 0.00123726 -0.00619704 -0.00789335 -0.00124360 0.00675880 -0.02426971 -0.00013081 -0.00517793 -0.00156610 0.10866452 -0.00038424 0.01208245 0.00653356 -0.00150505 -0.01253736 -0.00031823 -0.00827484 -0.02702506 -0.00359462 0.00414076 0.00521600 0.00054437 -0.12360514 -0.00794210 -0.00582332 -0.00980748 0.01514899 0.01192069 0.00130852 -0.00902051 -0.01012860 0.00108141 0.00199060 -0.00385215 0.00066050 -0.00322962 0.00462823 0.01426124 0.00790372 0.00026715 0.00002415 -0.00972642 -0.00062528 0.01006411 -0.03038720 -0.01512294 -0.11403460 -0.00124172 -0.00825617 -0.00065023 0.01239464 0.03241147 -0.00778640 0.01282734 -0.00365229 -0.00587666 -0.00132973 0.00773394 0.00042847 -0.00512100 0.00808427 -0.00890451 0.04855498 -0.00028927 -0.00358728 0.00594050 -0.00476200 0.00461529 -0.00286525 0.00207272 0.00132908 0.00755728 0.00214883 0.00940830 0.00282563 0.00080637 -0.01297726 0.00359652 -0.00379700 -0.02274948 0.00930178 0.00729942 0.00921303 0.00969357 0.03013704 -0.00395443 0.00452967 0.00250901 0.02296823 0.00296920 0.00577105 0.00011564 -0.00174669 0.01435830 0.00472852 -0.00811892 0.01077118 0.00071793 0.00110887 0.00165089 0.00341501 0.00840313 -0.00585050 0.00045412 -0.02699606 0.01924495 0.12341719 0.09657179 0.00227062 0.00506188 -0.02926741 0.04908396 0.02993801 -0.00474752 -0.00041328 -0.00579959 0.00660043 0.00475766 -0.00151435 0.01635922 0.04186471 0.00299122 -0.02033089 -0.00157985 0.00283849 0.00490140 0.00736360 0.00392830 0.00348839 0.00135633 0.00027045 0.00525528 0.00754302 0.00329214 0.00412388 0.00084718 -0.01574874 -0.02917778 -0.00850207 0.00654527 -0.01339802 0.00972765 0.03631674 0.00315054 -0.00050751 0.01145210 -0.00078420 0.00058995 0.00330655 0.01851746 0.02233595 -0.00460478 -0.00681616 -0.00369840 0.00060828 -0.00311227 0.00346016 -0.00044015 -0.02367286 -0.00005101 -0.01100763 -0.00472391 -0.00358914 -0.00696692 0.00245768 0.00029681 0.02849654 0.00467390 -0.00036750 -0.00106422 -0.00746687 0.00870216 0.02532003 0.00147028 0.00097427 -0.00080498 0.00144639 0.00014472 -0.00384619 -0.00807995 -0.00262413 -0.00638517 0.01062312 0.00310153 0.00065475 -0.00161730 0.00916496 -0.00324253 -0.00990549 -0.00231815 -0.02017368 0.00616971 0.00778839 -0.00571038 -0.00874625 0.00915706 -0.00075360 -0.00105718 0.00811098 0.00772453 0.00034162 -0.00227748 -0.00306032 0.00696288 0.00222286 0.00400540 -0.00552954 -0.00001425 0.02103998 -0.00428575 0.00392172 -0.00897126 -0.01322972 0.00692646 0.00202370 0.00360284 0.00151504 0.00703202 -0.00080221 0.01418146 -0.00030277 -0.00246907 -0.00211526 -0.00021602 0.00105143 0.00147939 -0.00203749 0.00007707 0.00800370 -0.00145789 -0.01278335 0.00622644 0.00050707 0.00002147 0.00270860 0.00638901 -0.00049865 -0.00183322 0.00277538 -0.00171161 0.01065329 -0.00096498 0.02631616 0.00124224 -0.00874507 -0.00674247 -0.00201788 0.00301833 -0.00253452 -0.01318035 0.00718729 -0.12265541 -0.01638173 -0.00103655 -0.00222099 -0.00110182 -0.00675645 -0.03426215 0.00018754 -0.00534946 -0.03143746 0.01646004 -0.01152691 -0.00143312 0.00067486 0.00567242 0.00747402 0.00930493 0.00289197 0.01343609 0.00434236 0.00460585 0.11448365 0.00029091 0.00218893 0.02084752 0.00143533 0.00841142 0.01499101 -0.01488239 0.00985492 0.03240017 0.00386194 0.00537249 0.00371152 0.01571439 -0.00348953 -0.00158535 0.00567831 -0.00443925 0.00698621 -0.00289936 0.00054060 -0.02619600 -0.00429656 0.01080804 -0.00365532 0.00343654 0.00897600 -0.01477146 0.00098625 -0.00839479 -0.00413044 -0.00603882 -0.00279929 -0.00766241 -0.00258182 0.00105170 0.02824935 -0.00106624 0.00043948 0.00999371 -0.01098437 -0.00551625 0.00695404 0.00853778 -0.00787970 0.00289625 0.00890081 -0.01265904 -0.12301220 0.00793383 0.00001388 -0.00236202 -0.00047613 0.00315693 0.00124437 -0.00518150 0.01133891 0.00058466 -0.00941698 -0.02184636 -0.01523140 -0.00561858 0.00331319 -0.10074806 -0.00177238 0.01122007 -0.11832945 0.02168727 -0.03028118 -0.02656846 0.01003177 0.02026885 -0.00567922 0.01050092 0.00373998 0.00203225 0.00428710 -0.00143549 -0.00264584 -0.00309503 -0.00246602 0.01225640 -0.01329914 0.00393000 -0.00586945 -0.00319228 -0.00476815 -0.00036618 -0.00151229 0.00271999 -0.00610657 0.00917078 0.00797419 -0.00619973 0.02739729 -0.00130665 0.00421777 -0.01297216 0.00035824 -0.01748449 0.00031847 0.00322950 0.00784911 -0.00227252 -0.00243054 0.00298437 -0.00446359 0.01497356 0.00235998 0.01164354 0.02826792 0.10903164 -0.00559109 -0.00909573 0.00336963 -0.00283571 -0.00042274 0.00282849 -0.00675214 0.02552394 0.00335306 0.01204318 -0.04223630 0.00737489 -0.04934166 -0.00183318 -0.00017144 -0.00146711 0.00012878 0.00350561 0.00732124 0.01261097 -0.00028975 0.00225384 -0.01103295 0.00528101 -0.03020000 -0.00370647 0.00088808 0.00098274 0.00558334 -0.00372396 -0.00652037 -0.01548729 -0.00392289 0.00307986 -0.00162777 0.11270374 0.00030747 0.00519179 0.06568829 -0.00824679 -0.00254160 -0.02443913 0.00144745 -0.00423628 0.00068355 0.01030533 -0.01433368 0.00610808 0.00181548 0.00352168 0.00406668 0.00096840 -0.00037848 0.00179360 -0.02020678 -0.01057705 0.00593557 0.00434999 0.00612212 -0.00554384 -0.00298777 0.00305980 0.00103229 -0.00214326 -0.00110588 0.00540222 -0.00708928 0.02431133 0.00072411 0.00151299 -0.00134674 0.01688604 0.00558638 0.00180530 0.00712936 -0.01154264 0.00152949 0.01130574 0.00149648 0.01052296 -0.00923481 0.00576994 0.00028114 -0.01375184 0.00669284 -0.00257276 -0.00011907 -0.02814660 0.00199370 0.00087074 -0.00276813 -0.00806557 0.00213512 0.00532202 -0.02412958 -0.00145232 -0.00481152 0.00399809 -0.00053946 0.12102310 -0.00071296 0.00209639 0.00059757 -0.00172367 -0.00091592 0.00595272 0.00679874 -0.00458524 0.00524956 0.01352348 0.02813872 0.00583886 -0.00503055 -0.00311986 0.00530416 -0.01031332 0.00564961 0.00606017 0.01213358 0.00967395 0.00264419 0.02020369 0.00018196 -0.00579636 -0.00031444 0.01438407 0.00302418 -0.00465853 -0.00690389 0.01053770 -0.00447782 0.00973593 0.00370171 0.00419195 -0.00597609 -0.03860256 0.00063645 -0.02236301 0.00016557 -0.00608341 -0.03324248 -0.00061624 0.00046781 0.00572874 0.01609792 -0.00017333 0.00421935 0.01572026 0.01610515 -0.00065791 -0.00084050 0.00670482 0.02295854 -0.02015790 0.00679450 0.00513046 0.00684248 -0.00486530 0.00059603 0.00678393 0.11106671 0.00221252 0.00420626 -0.01184415 0.00337957 -0.00725469 -0.01870509 -0.02909665 0.00687727 0.07724506 0.02676293 -0.00340202 0.00863522 -0.03495555 -0.00428028 0.03984585 -0.02644278 0.00168543 -0.01189827 0.05501426 -0.00175546 0.00805996 -0.00494173 -0.00332399 0.00104329 -0.00292680 0.00587949 0.00100974 0.00575799 -0.00745787 -0.01166387 -0.00132379 0.01003853 -0.02458521 -0.00983741 0.01486049 -0.08309711 -0.02873057 0.00946583 0.01787252 -0.00537839 -0.00522503 0.00039033 0.00103760 0.00888550 -0.00120299 -0.00306211 0.00098266 -0.00139632 -0.00907346 0.00704561 -0.00137850 0.00854973 0.02550206 -0.00350638 -0.00113172 -0.00079492 0.00003004 0.00201698 -0.00190399 -0.00974750 -0.01328709 -0.00913881 0.00132935 -0.00188966 0.00862348 -0.00031014 -0.00220743 -0.02086924 -0.00573291 -0.04110139 0.00289365 -0.01265297 0.00770003 0.00258507 0.00300350 0.00602463 0.00220082 0.00447676 -0.00028006 0.00823248 -0.02694742 0.00029706 -0.01380817 -0.00527248 0.01018529 -0.00201174 -0.00341769 -0.00172981 0.00040762 0.00222374 0.01188194 0.00006338 -0.00125714 0.00026291 0.12187798 -0.00506261 -0.00035566 -0.00090067 0.01959940 -0.00205602 0.00603788 0.01198699 0.00932796 -0.00124812 -0.02595208 -0.00156849 -0.00796383 -0.01003196 -0.01579406 -0.00586745 0.02861440 0.00336470 -0.01751799 -0.00703898 0.07674211 -0.00070875 -0.00600862 -0.01170121 0.00225103 0.00368273 -0.01077637 -0.00100197 -0.02282768 -0.02587203 -0.01814174 -0.01024091 0.01531933 0.02741538 -0.01285749 -0.00117064 -0.00131184 0.00479664 -0.01003571 -0.00045138 -0.00172449 -0.03242174 -0.00476893 0.00427645 -0.00248040 -0.01217188 -0.02886304 0.00046800 -0.00679337 0.00155947 -0.01768714 0.00083197 0.00531096 -0.12304202 0.00538625 -0.00745341 -0.00443194 0.02219927 0.00492738 0.00213284 0.00041660 0.01167798 -0.00586067 -0.00521844 -0.00084697 -0.00734290 -0.02084425 0.00428378 -0.00631431 -0.00031366 0.00774376 0.00474343 0.02499060 0.00020039 -0.00183873 -0.00149015 -0.00065645 -0.00598256 -0.00901612 0.00943434 0.00708087 -0.00735684 0.00233989 0.01780382 0.01474348 -0.00052202 -0.00540326 0.00022833 0.00952218 0.00318803 -0.00888737 -0.01103812 0.00521851 -0.02169787 -0.01955992 0.00008337 0.01469774 0.02806948 -0.01100641 0.00976995 0.00637644 -0.01448535 -0.00916821 0.00270623 0.00266548 0.00570729 -0.00340961 0.01180067 -0.00610870 -0.00475268 -0.00444034 0.00218511 0.00546866 0.00900393 -0.02447373 0.00068505 0.00017981 -0.01150722 0.00051250 -0.00979600 -0.00432871 0.00325477 0.00264502 -0.00044130 0.00468454 -0.02727135 -0.00348459 -0.01379990 -0.00484334 -0.00079610 -0.01230578 0.00009984 0.00174478 0.03442358 -0.02346306 0.01613517 0.00457921 0.00715321 0.00843713 -0.00172159 0.00183373 0.00697328 0.01589934 -0.00513109 0.01669746 -0.12065068 0.00753081 -0.00075592 0.00506541 -0.00194625 -0.00563772 -0.06788523 -0.00059028 -0.03559418 0.00099737 -0.00176417 -0.00031509 0.00351607 0.00184553 -0.00101955 -0.00644466 -0.00016454 -0.00382115 -0.00348510 0.00554521 0.00039855 0.01329481 0.00043304 -0.04532553 -0.00881326 -0.00062501 -0.00827419 0.03089028 -0.00114627 -0.00496534 -0.00084032 0.00817354 0.03596080 -0.00264023 -0.01081373 0.00961369 -0.00038637 0.00285612 0.09173542 -0.00713430 -0.00064167 -0.00944846 -0.00065299 0.00911999 -0.00065503 -0.01431863 -0.00970061 0.00271198 -0.00058495 -0.00254133 0.00176355 -0.00429457 -0.00619312 -0.00024783 -0.01682776 0.01102101 -0.00592650 0.01400099 0.00391390 -0.00218145 -0.00044851 -0.00175420 0.00221133 -0.00550062 -0.00786834 0.00215267 -0.00187639 0.00800297 -0.01951788 0.00174102 0.00310241 -0.00066935 -0.02272501 0.00852914 0.01001318 -0.00062309 -0.02200008 -0.00487568 0.00068506 0.00105694 0.01276941 0.00002983 0.00593830 -0.00125477 -0.02529255 -0.00858385 -0.00885327 0.00279165 -0.00381611 0.02288323 -0.01634125 0.00101952 -0.00079824 -0.00053115 -0.00017991 0.00281067 -0.00354450 -0.00474922 -0.00405526 -0.00660459 -0.04974744 -0.00310089 0.00325396 -0.00138645 0.00392089 -0.00199067 0.00720497 0.01148400 -0.00118342 -0.00629420 0.00348021 0.00445829 -0.00698347 0.01318429 -0.01550020 0.01279631 0.00008820 0.04962604 0.00306918 -0.00836614 -0.00667364 0.01293336 0.00462256 -0.00215349 0.00094018 0.00208472 -0.00108310 0.01435886 -0.00313250 0.00517219 -0.00066454 -0.00171387 -0.00579319 -0.00074766 0.00254189 -0.00808023 0.00051991 0.00204397 0.00092627 -0.00165075 -0.00004946 -0.00133899 -0.00672707 0.11666652 -0.00459716 -0.00696291 -0.00926563 0.00709863 0.00449525 -0.00657016 -0.00255154 0.01384382 0.02143457 -0.05517485 -0.00696295 -0.00085532 0.00305380 0.00275850 -0.00056779 -0.01845004 0.02148238 -0.01133141 0.00983272 0.00395787 0.01361190 0.01896681 -0.00400777 0.00116248 0.00020975 -0.00391826 0.00995066 -0.00174713 -0.08646943 0.00285684 0.00522633 0.00031057 0.00014887 -0.01470013 -0.00496151 0.00101077 0.01856091 0.00426636 0.01386541 0.00758886 0.00309773 -0.00774133 -0.00911133 -0.00138938 -0.00647376 -0.00027096 0.00879336 -0.00091057 0.01096858 -0.02239213 -0.01263964 -0.00078218 0.00031200 -0.00512423 -0.00267255 0.00037383 0.00178281 -0.00534770 -0.00554026 0.00166858 0.00641390 -0.00009700 -0.00139945 0.00246463 0.02533972 -0.00914737 -0.00032514 -0.00987425 0.01211285 0.00161765 0.04912943 -0.02905857 0.00039256 -0.01485250 -0.00833652 0.00319123 0.00190335 -0.00953655 -0.00146469 0.00785542 -0.00993055 0.03309002 -0.00070179 0.00070776 -0.00111621 0.01282678 0.01914984 -0.01170816 -0.00583387 -0.01788105 -0.00917162 -0.00024026 0.00265040 0.00041966 0.01294160 -0.00157000 0.00055069 -0.02073593 0.00664127 0.00345767 -0.00017247 -0.00136395 0.01470259 0.00138166 0.00000990 -0.00869294 0.00969364 -0.00071800 0.00099566 0.00084359 -0.01266888 0.01147644 -0.02993850 -0.00378446 0.00189986 -0.04160422 -0.00253403 0.00239448 0.00343283 0.00313793 0.00187254 -0.11498599 0.00306271 -0.01347952 -0.01102715 0.00113891 -0.00115698 -0.00109517 -0.01971913 -0.00032201 -0.00082559 -0.00247088 -0.00562477 0.02182228 0.01090731 -0.01017758 0.02921233 -0.00198922 -0.00549799 -0.00373621 0.00410413 -0.02748623 -0.00302884 0.00649024 0.00555397 -0.00566211 -0.01461484 -0.00383478 -0.00272973 -0.00027726 0.01008512 0.00253555 0.00491050 0.00117660 -0.00076440 -0.00105308 -0.00783055 -0.00057129 0.00950651 -0.02799574 0.00278055 0.00674514 0.00150610 0.11297768 -0.00228534 0.00884952 0.00802928 -0.00218183 0.00096977 0.00491910 -0.02554173 0.02236817 0.00266000 -0.00015252 -0.00145007 0.00197524 0.00403835 0.00415495 -0.01065615 -0.00489977 0.00052380 -0.04572385 0.00290961 -0.02377585 0.01237163 0.11576229 -0.01096514 0.01105847 -0.01066266 0.08576326 -0.00007839 0.01289768 0.01047425 0.02518810 -0.01173085 -0.00796919 0.02986347 0.00895948 0.00269275 -0.00895324 0.00342535 -0.00838397 -0.00208063 -0.00159638 0.00003118 -0.00303976 0.01547495 0.00105809 0.00004189 -0.01506410 -0.00276942 0.00311517 -0.00552517 -0.00088326 -0.00011545 -0.00098943 0.00027903 0.01212119 0.00040182 -0.00078151 0.00244767 0.00123601 0.00086511 -0.00080701 -0.00146053 -0.00252107 -0.00056766 0.00201680 -0.00423843 -0.00520290 -0.00203261 0.00161057 0.00101426 -0.00094393 0.00012299 -0.00914934 -0.00272748 0.00106509 0.00090699 0.03743139 0.00102635 -0.00054476 -0.00046602 -0.00115444 -0.00022232 -0.00125529 -0.00043498 0.00186564 -0.00296190 -0.00001195 -0.00107592 0.00113126 -0.00156026 0.00657153 -0.00011825 0.00132756 -0.01848042 0.00199884 0.00022100 0.00247249 0.03178350 0.00045236 0.00074202 -0.00661861 -0.00119423 0.00208751 0.00612890 -0.00483869 -0.00112799 -0.01911674 0.00047863 -0.00141337 0.00172159 0.00214907 0.00210751 -0.00773680 -0.00528815 0.00553739 0.00006629 -0.00161868 -0.00061488 0.00150467 0.00071207 -0.00392542 -0.00106421 -0.00465850 -0.00044082 -0.00051450 0.00081298 -0.00051431 0.00953571 -0.00092439 0.02604934 0.00015912 0.00393567 0.00286401 0.00045968 -0.00108519 -0.00407982 -0.00021552 0.00087968 -0.00217181 0.00131421 0.00031926 -0.00401036 -0.00026690 0.00474843 -0.00070802 0.00183238 0.00054929 -0.00241312 0.00512864 -0.00094181 -0.00115944 0.00015326 -0.00049574 -0.00065740 0.00003805 -0.00017696 0.00044892 -0.00033183 0.00070003 -0.00190554 0.00293605 0.00092880 0.00026784 -0.06381729 0.00149266 -0.00294700 -0.00141648 0.00044855 -0.00081029 -0.00199941 -0.00010407 -0.00191864 0.00352758 -0.00166923 0.00000899 -0.00060168 -0.00064354 0.00044184 -0.00071823 0.00058441 -0.00224040 0.00070233 0.00055812 -0.00108647 -0.00216760 0.00033633 0.00048168 -0.00095731 -0.00007454 0.00034109 -0.00071577 0.00215286 -0.00120183 -0.00133999 -0.00023985 -0.00418379 0.00061266 -0.00738905 -0.00178820 0.00305850 0.00029086 0.00356041 0.00016069 0.00083849 0.00120291 0.00108643 0.00052984 -0.00147196 0.00284122 -0.01369298 0.00331748 0.00043439 -0.00157382 0.02849605 0.00135380 -0.00043800 0.00090661 -0.00127958 0.00493319 0.00001892 0.00127991 -0.00208097 -0.00293859 -0.01121982 -0.00424407 0.00118502 -0.00171748 -0.00023536 -0.00050492 -0.00636865 -0.05601218 0.00136835 -0.00012089 0.00022134 -0.00044432 -0.00041996 -0.00365528 0.01981721 -0.00142625 -0.00283824 0.00202823 -0.00572352 -0.00033239 -0.00186946 -0.00062498 0.00057617 -0.00248260 -0.00099643 0.00074515 -0.00171972 -0.03321057 -0.00022867 -0.00018056 -0.00012997 0.00043947 0.00107735 0.00175013 0.01946190 0.00180509 0.00044927 0.00077456 -0.00006198 0.00077652 -0.00561744 0.00057339 0.00006894 -0.00231704 0.00012636 -0.00515945 0.00047031 -0.00080496 -0.00013897 -0.00070129 -0.00007113 -0.00081426 -0.00067748 0.00144235 0.00322585 0.00427160 -0.00051309 -0.00185502 -0.00434935 0.00845490 0.09605141 0.00106367 0.00383190 -0.00583251 -0.00001178 -0.00011249 -0.00013483 -0.00425002 0.00086795 -0.00146903 -0.00095696 0.00023337 0.00086344 0.00288412 -0.00146600 -0.00116245 -0.00123938 0.00178032 0.00469274 0.00180862 0.00072282 -0.00746306 -0.00049368 -0.00134486 0.00178661 0.00049009 0.00047548 0.00040025 -0.00142374 -0.00203663 0.00119512 -0.00185600 -0.00076076 0.00049626 -0.00020854 0.00246464 -0.00355945 -0.00004063 0.00033215 -0.00167524 -0.00108558 0.00186219 0.00001100 0.00306484 -0.00249887 0.00010589 -0.00055328 -0.00214850 -0.00840736 0.00134021 0.00709663 0.00033475 0.00206676 0.00057441 0.00110795 0.00035637 0.00247932 -0.00124963 0.01683897 0.00013950 0.00017353 0.00157493 0.00116989 0.00063590 0.00000355 0.00101349 -0.00133665 -0.00224800 0.01129723 -0.00030149 -0.00145981 -0.00159812 0.00309554 0.00529232 -0.00289202 -0.00022001 -0.00235503 -0.00129975 0.00073742 -0.00047735 -0.00080730 0.00063798 0.00039906 -0.00018649 0.08093445 0.07809332 -0.04892124 -0.00032444 0.00066545 -0.00068338 -0.01206521 0.00049854 0.00021295 0.00022772 0.00053317 0.00055612 -0.00026991 0.00156284 -0.00033752 0.00016462 -0.00087931 -0.00052235 0.02435985 0.00191989 0.00010341 -0.00052817 -0.00168173 0.00037816 -0.00066734 0.00055720 0.00012606 0.12136634 -0.00143039 -0.00219062 -0.00355661 0.00280499 -0.00817378 0.00020308 -0.01501115 0.00104830 -0.00207084 0.00011476 -0.00969462 0.00019232 -0.00115334 -0.00150088 -0.03663265 0.00041407 0.00162471 -0.00011819 -0.00003375 0.00307082 -0.00029324 -0.00122943 0.00020655 0.00060051 -0.00029484 0.00112320 -0.00032408 0.00049700 0.00085112 0.00060706 -0.00219195 -0.00833078 -0.00041395 -0.00192281 0.00150743 0.00058596 0.00176156 -0.00012202 0.00122168 0.00120036 0.00069678 -0.00158610 0.00341826 0.00003137 0.00409363 -0.00221273 -0.00000728 0.00245579 -0.00047481 -0.00277996 -0.00108627 -0.04080674 -0.00060208 0.00124620 -0.00186230 0.00863121 -0.00152686 0.00026443 -0.00415322 0.00011526 0.00375886 -0.00041398 0.00016048 0.00339752 0.00022957 0.00053377 -0.00046723 -0.00099266 -0.00344072 0.00137641 0.02751217 -0.00234356 0.00261289 -0.00140774 -0.00038599 0.00024846 -0.01074315 0.00106207 0.00003570 0.00009171 -0.06932032 -0.00349996 0.00111223 0.00026421 0.00003908 -0.00129844 -0.00134159 -0.00036085 0.00890225 0.00560491 0.00146012 0.00560801 -0.00013509 0.00014751 0.00302371 -0.00000415 -0.00390280 -0.00450345 0.00146324 -0.00709011 -0.00415141 0.00067282 0.00266109 -0.00056859 0.00039872 -0.00218945 -0.00259435 -0.00297320 0.00123369 0.00806689 0.00074001 -0.00179743 0.00385806 0.00558858 -0.00067109 0.00003966 -0.00393130 0.00089852 -0.00022583 0.00075288 -0.00240030 -0.00069147 -0.00017005 0.00153659 0.00084446 0.00438457 0.00335576 0.00008538 0.00637594 -0.00310527 -0.00074697 0.00049259 0.00192853 -0.00216296 -0.00001963 -0.00095559 0.00139849 0.00061192 0.00130992 -0.00057604 -0.00009668 0.00048822 0.00000181 -0.00435034 0.00154226 0.00032262 -0.00150228 0.01029915 -0.00818745 -0.00063123 0.00003693 0.00171741 0.00629480 0.00087489 -0.00047310 0.00006307 -0.00094689 -0.00197765 0.00066025 0.00092946 -0.00165771 -0.00141147 0.00013600 0.00083341 -0.00223745 0.00009199 0.00053052 0.00106381 -0.00016325 0.00146465 0.00035757 -0.00117153 0.00142010 0.00007973 -0.00046354 0.00028194 -0.00295548 -0.00192951 -0.00275240 -0.00123112 -0.00016826 0.00057512 0.00019909 -0.00008325 0.00064049 -0.00079534 0.00429719 -0.00770996 0.00045963 -0.00211640 0.00013544 -0.00157286 0.10129503 -0.00063872 0.00213730 -0.00408328 -0.00048315 0.01499679 0.00011176 0.00053591 0.00050983 -0.00132362 0.00318804 -0.00060265 -0.01418933 0.00016555 0.00678608 -0.00042223 -0.00043158 -0.00189798 0.00065768 0.00186130 0.00177806 -0.00021066 -0.00230939 -0.00104191 -0.00179439 0.00058974 -0.00040040 0.00215319 0.00006904 -0.00008271 -0.00066340 -0.00125814 0.00316410 -0.00068343 0.00069121 -0.00052440 0.00304896 0.00055118 0.00448020 0.00008528 -0.00129529 0.00014341 0.00404682 0.00062251 0.00293261 -0.00041938 0.00159340 0.00000887 0.00015248 0.00014766 -0.00194186 0.00663371 0.00449050 -0.00295889 -0.00275026 0.00741772 0.00064773 -0.00156961 0.01542981 -0.00641872 -0.00077178 0.00400982 0.00089290 0.00123106 0.00002593 0.00308660 -0.00014753 0.00165785 0.00430333 -0.00439772 0.00593214 0.00191914 -0.00042920 0.00063213 0.00002660 -0.00293941 -0.00079081 0.00077271 0.00290399 0.00143280 0.00045995 -0.00124192 -0.00022654 0.00783752 0.00057434 -0.00366921 0.00005305 -0.00320997 0.00062385 -0.00155146 0.02056273 -0.00064904 -0.01204343 0.00070621 -0.00030784 0.01253440 -0.07289024 0.00355462 -0.00070548 0.00002181 0.00012176 0.00209677 -0.00013822 0.00091262 0.00008832 0.00242244 0.00158662 0.00125791 -0.00003739 -0.00143888 0.00016998 0.00011287 -0.00433280 0.00582421 0.00036960 -0.00067453 -0.00093934 0.00026787 -0.04278716 0.00013565 -0.00110226 0.00431353 0.00175356 -0.00242549 0.00071046 -0.00319451 0.00074858 -0.02113747 0.00072340 0.00021273 -0.01281518 0.00981410 -0.00029739 0.00233051 0.00007449 0.00037015 -0.00089659 -0.00074926 0.00291674 -0.00047711 0.00015707 -0.00011222 -0.00035310 -0.00075939 -0.00332219 -0.00009983 -0.00095789 -0.00180356 -0.00040675 0.00000638 0.00002486 -0.00230713 0.00037157 -0.00027344 -0.01146180 -0.00642566 -0.00209810 0.00021913 -0.00110423 -0.00171251 0.00526191 -0.00140485 0.00255813 -0.00003683 0.00127099 0.00026551 -0.00709494 0.00080023 -0.00079676 -0.00045938 -0.00038667 -0.00232316 0.00134868 0.00018853 -0.00240009 0.00319157 0.00112433 0.00114033 -0.00669211 0.00215049 0.00030517 -0.00509101 0.00161924 0.01978946 0.00100977 -0.00045659 0.00290418 -0.00028324 0.00239630 -0.00070046 0.00004029 0.00051972 -0.00105662 0.00119568 -0.00035817 -0.00023435 0.00085498 -0.00245578 -0.00215443 -0.00125887 0.00024396 -0.00082582 0.00019068 -0.00011318 0.00024288 0.00152780 -0.00027617 0.00049547 -0.00117147 -0.00401456 0.00246487 -0.00713140 0.00056553 -0.00040291 -0.00383816 0.00003051 0.00039027 0.00651227 -0.00579793 -0.00080403 0.00322126 -0.00122855 -0.00085041 -0.00006401 -0.00139364 0.00464276 0.00104110 0.00059382 0.00069956 0.00170199 0.00143223 0.00151515 -0.00033009 0.00083057 0.00053083 0.00101878 0.00242706 -0.00201435 0.00091138 -0.00072502 -0.00330552 0.01078873 0.00011642 -0.00036594 -0.00030316 0.00042564 0.00282571 0.00127810 -0.00155229 0.00466424 0.00067400 0.00166543 0.00191931 0.00019440 -0.00214024 0.00030296 0.00021439 0.00056229 -0.00258159 0.00104261 0.00127409 -0.00065300 -0.00066470 0.00082544 -0.00402277 0.00020324 -0.00046287 0.00157330 -0.00021562 0.00145233 -0.00091588 0.00227035 -0.00007625 0.00232218 0.00006346 -0.00174711 0.01084467 -0.00193503 0.00015972 -0.00000146 -0.02189896 -0.00399476 -0.00104897 -0.00627419 0.00037166 -0.00002960 -0.00163260 -0.00124939 -0.00150584 -0.00099822 -0.00127329 -0.00100512 -0.00461945 -0.00150669 -0.00093368 -0.00056959 -0.00113015 -0.00000845 -0.02195963 -0.00369910 0.00207193 -0.00140112 -0.00416344 -0.00124612 0.00890748 -0.00508114 -0.00212781 0.00251259 0.00178362 0.00007162 -0.00154959 0.00080433 -0.00220147 -0.00047491 0.00530432 0.00013151 -0.00235405 -0.01755453 0.00008615 -0.00107931 -0.00196680 -0.00159397 0.00000982 0.00741400 -0.00010736 0.00171553 0.00010548 -0.00285533 0.00049205 0.00008187 -0.00063539 -0.00113215 -0.02325764 0.00012273 0.00034665 -0.00142449 -0.00099417 -0.00148617 0.00055699 -0.00007344 0.00197964 0.00770530 0.00481064 -0.00022789 -0.00342236 0.00279553 -0.00031914 0.00173378 -0.00056169 0.00731815 -0.00010590 0.01044324 0.00297183 -0.00219304 -0.00240298 -0.00398369 -0.00060409 0.00074462 -0.00092488 0.00039624 -0.00912607 -0.00812560 -0.00111257 -0.00092649 -0.00478406 0.00027779 -0.00010481 -0.00076460 -0.00439887 0.00285580 0.00014502 -0.00151247 -0.00040763 0.00004787 0.00069892 -0.01278931 0.00046327 -0.00658641 -0.00313052 -0.00014200 -0.00022322 -0.00145101 -0.00043686 0.00063593 0.00274583 -0.01271103 0.00081439 -0.00179967 0.00470114 0.00096055 -0.00092485 -0.00307473 -0.00322400 -0.00022050 -0.00197653 0.00036338 -0.00235485 -0.00052309 -0.00017408 -0.00070516 -0.00025696 -0.00069564 -0.00181103 -0.00299392 0.03930527 -0.00093756 -0.01221695 0.00182683 -0.00150365 -0.01626380 0.00075677 -0.00048932 0.00761983 -0.00249258 0.00119257 0.00098835 0.00730778 -0.00133634 0.00292960 -0.01230228 -0.00232580 -0.00025768 -0.00549972 0.00607398 0.09252605 0.00175973 0.00273236 0.00244284 -0.00002845 -0.00098787 0.00203459 0.00472291 -0.00391080 -0.00116400 0.00146887 0.00315074 0.00596768 -0.00018399 -0.00094463 -0.00599248 0.00005695 0.00306158 -0.00056327 -0.00016282 -0.00339470 0.00149980 0.00108493 0.00145350 -0.00089779 -0.00057681 -0.00015553 -0.01611051 -0.00077698 -0.00296485 0.00042689 -0.00770235 0.00343374 -0.00129502 0.00144020 0.00090526 -0.00054537 0.01248836 0.02479946 0.00214655 0.00133333 -0.00042595 -0.00026296 0.00220501 -0.00007713 0.00075742 -0.00181187 0.00368723 -0.00038232 -0.00127466 -0.00036724 -0.00184087 0.00090241 0.00262616 -0.00131920 0.00040723 0.00021641 -0.00388660 0.00015477 0.00459864 -0.00219086 0.00544005 0.00121037 0.00143367 -0.00086747 0.00108982 -0.00163154 -0.00066134 0.00092023 -0.00209086 0.00462472 0.00048496 0.00232672 -0.00609877 0.00045501 -0.00324265 -0.00403966 -0.00048845 -0.00229395 0.00005814 0.00080677 0.00191568 0.00098256 0.00005717 0.00004299 -0.00739577 -0.00192378 -0.06560811 -0.00024043 0.00037571 0.00366144 -0.00072469 0.00572237 0.00553622 -0.00029275 -0.00524491 0.00071704 0.00315873 0.01162184 0.00073987 -0.00032549 -0.00011989 0.00037043 0.00198481 0.01032009 -0.01402477 -0.00033774 0.00017926 0.00018196 0.00132838 0.00000990 0.00033660 -0.00062972 -0.00491766 0.00191969 -0.00097782 -0.02611721 -0.00013466 0.00099628 0.00281443 -0.00017287 0.00267065 -0.00106987 -0.00015413 0.00026280 0.00646785 0.00656017 0.00458517 -0.01162600 -0.00245993 0.00017919 -0.00022731 0.00169487 -0.00296293 -0.00014604 -0.00632247 -0.00218558 -0.00004574 -0.00034570 0.00134085 -0.00250413 0.00673372 -0.00008374 -0.00178333 0.00097369 -0.00102596 -0.00258949 -0.00044488 -0.00348129 -0.00240890 -0.00078208 -0.00322733 0.00050879 -0.00004614 -0.00097516 -0.00199316 -0.00095199 -0.00232181 0.00070375 -0.00030720 0.00066549 -0.00073739 -0.00145526 0.00059443 -0.00362590 -0.00205258 0.00034512 -0.00212634 -0.00372890 -0.00123650 0.01570198 -0.00026077 0.00005482 -0.00129032 0.00019080 -0.00272289 0.00047274 -0.00010837 -0.00595663 -0.00251122 -0.00082946 0.00090824 -0.00482956 0.00094192 -0.00786368 -0.00121400 -0.00150788 -0.00063847 -0.00059591 -0.00189004 -0.00041693 -0.00131034 0.00103725 -0.00064339 -0.00122592 -0.00014197 0.00003227 0.00029959 -0.00053399 -0.00144305 0.00455813 0.00076599 -0.02378756 0.00085551 -0.00062813 -0.00028317 0.00067528 -0.00127763 0.00010269 0.00027785 0.00000933 0.00025047 0.00321870 -0.00605168 0.00038392 0.00014699 -0.00173788 -0.00016067 0.00147408 -0.00203550 0.00003319 0.00061565 -0.00050204 0.00145070 -0.00312206 0.00705764 -0.00141532 0.00171325 -0.00284050 -0.00417097 -0.00330544 -0.00190699 -0.00044263 -0.00491078 -0.00117330 0.00062932 0.00079804 0.00147003 0.00003826 -0.00688715 -0.01312659 -0.01156134 0.00614426 0.00497556 -0.00605237 -0.00677376 -0.00816140 -0.00068952 -0.01858363 -0.00787885 -0.01144507 -0.02700422 -0.00624971 -0.00597435 -0.01783828 0.01292551 0.00309140 0.00403263 -0.00467619 0.03036328 0.00143047 0.15222214 0.00872167 -0.01041590 0.03876194 0.01883831 -0.00614177 -0.00313645 -0.00151839 0.00316184 0.00760966 -0.00750206 0.00899698 0.00253111 0.00883513 -0.00792399 0.00428019 0.00614387 -0.01515225 -0.00436996 -0.00005263 -0.03625369 -0.01025952 -0.00077302 -0.02409730 0.02369251 -0.04243206 0.03505297 0.00080735 0.01741080 0.02367222 -0.01529328 -0.00738021 -0.02533040 -0.00426361 -0.00116966 0.00214672 -0.01211616 -0.00052356 -0.03931955 0.16001572 0.00581187 0.00162064 -0.03288160 0.00103464 -0.00400235 -0.00682920 0.00265318 -0.00661748 -0.00003127 -0.01153178 -0.01004503 0.03489338 0.01529467 0.01309956 0.00161558 -0.16012555 0.00085349 0.15949780 -0.00040386 -0.01303581 -0.01151957 -0.01278604 -0.01040726 -0.00171265 -0.00905022 -0.01510010 0.00789809 0.02696030 -0.01317359 0.01454463 -0.05128891 -0.02295991 0.00729430 0.00514292 -0.00311228 -0.00195871 0.00050339 -0.00510907 -0.00175812 -0.01813118 0.02407566 0.01152102 -0.00779786 -0.00263219 0.01036003 0.00761472 -0.02419601 0.00995283 -0.00499309 0.01302320 -0.00384851 -0.00241378 -0.00592599 -0.00946208 -0.00295686 0.01621105 -0.00337992 0.03624813 -0.00667398 0.00278444 0.00061010 0.00490343 0.01536953 -0.01588317 0.00001623 0.00195171 0.00274895 0.02535030 -0.00043001 -0.02419736 0.04411423 -0.00066153 0.01775442 -0.03314919 0.01267325 0.01868597 0.01865568 -0.03140306 -0.00678633 0.01058744 0.02220119 -0.00671247 -0.00151044 -0.00858057 -0.00158876 0.01817341 -0.01986459 0.01804048 -0.00776492 0.05862213 -0.01535218 0.00689061 -0.00020651 0.01257485 0.00029110 0.01017522 -0.00621874 -0.00692447 -0.00439972 0.00101576 0.00968087 -0.00588261 0.00806225 -0.02322445 -0.00951681 -0.01038390 -0.00978011 0.00423030 -0.03008093 -0.00994470 -0.01542092 -0.00195585 -0.00700596 -0.00846962 0.16013320 0.00079840 0.00100761 -0.01422847 0.02344817 0.01885273 -0.01100712 0.00438239 -0.01213808 -0.00875580 0.00027119 -0.00706049 0.04227603 -0.01335985 -0.00734288 0.00157757 -0.00580234 0.00217657 -0.00869597 0.00074625 -0.15990892 -0.00282018 0.00080028 -0.01996935 -0.04930575 0.00365370 0.00289246 -0.03934658 -0.00694136 0.01499489 0.03123355 -0.02006005 -0.06669363 0.00160915 -0.01623757 0.03534935 -0.00872527 0.00229151 -0.00615714 -0.00028256 0.01643212 -0.00172589 -0.10955002 -0.02049687 -0.00063320 0.00740377 0.01667893 -0.00570159 -0.07838771 0.01300398 0.00490480 -0.01039530 -0.01838236 -0.00133259 0.00059829 -0.00600160 -0.00590620 0.01203240 -0.01360693 -0.00072266 -0.00154106 -0.00770374 -0.00764449 0.01134278 -0.00116483 -0.00433528 0.00479270 -0.03907073 -0.00095990 0.05048477 -0.00060921 -0.01359005 0.01106743 -0.00623585 -0.01017650 -0.00460294 0.00447234 0.01650161 -0.00911369 -0.04455901 0.02739741 -0.00911092 -0.00148405 0.00308938 -0.04808973 -0.01753377 0.00131713 -0.00811769 -0.01706959 0.00847120 -0.02622940 -0.00793952 0.00250232 -0.00658082 -0.01682477 -0.00701063 0.01656359 0.02156782 -0.00175790 0.00010828 0.00355713 -0.00842396 -0.00617553 -0.00928030 0.05772972 -0.00519552 -0.02660580 0.01625535 0.03283276 -0.00098717 0.02143065 0.02516321 -0.01870177 0.01062798 -0.00028954 0.03210108 -0.00227077 0.00638576 0.00131732 0.00087925 -0.01247977 0.01257217 -0.00563997 -0.00074382 -0.01335778 0.01375549 0.01041579 0.04874497 0.00154257 -0.00498138 -0.01554243 -0.00073477 -0.00326009 -0.01070893 -0.00613290 0.02897325 0.01816819 -0.03595414 0.02588094 -0.01012492 -0.00490195 -0.01714603 0.00576402 -0.00813200 -0.01183811 -0.00321945 -0.00174597 -0.00965295 0.00264819 -0.00166132 0.04977223 -0.00531204 -0.01120829 0.09486102 -0.01568826 -0.15884422 -0.00685801 -0.01635489 0.01110175 -0.00391544 0.01816062 -0.00167800 -0.00623972 0.00287050 0.02976714 0.02275082 -0.03249706 0.01525035 -0.00225570 0.01886899 0.00152975 -0.00737251 0.00349514 -0.00657149 -0.00612925 0.00807357 0.00170555 0.00178559 -0.00279535 -0.00138703 -0.00321221 0.00067715 -0.00801588 -0.00978732 0.00288917 0.00840160 0.00751374 0.00352470 0.02779779 -0.00785318 -0.00513180 0.00934886 0.00104099 -0.00459984 -0.01015855 -0.01065961 -0.03929808 -0.00127795 0.00127226 0.00000702 0.00161726 -0.00422087 0.00326792 0.00621214 -0.00592944 -0.03476091 0.01904797 0.02109903 -0.00166523 -0.03646547 -0.00428157 0.00431992 0.00434623 -0.00331373 -0.01617738 -0.01682162 -0.01260515 0.02156799 -0.01150466 -0.00223446 0.00368231 -0.00929230 0.00314800 0.00237344 0.00484789 0.01260807 0.02529977 -0.16006811 -0.00280398 0.00113969 0.00318194 -0.02868069 -0.01026397 0.00225037 0.00418889 -0.00930574 0.00101230 0.01343588 0.02292092 0.03721851 0.04676992 -0.00176643 -0.00600759 -0.00970599 -0.00464877 -0.03917591 -0.00688139 -0.04448486 0.00532480 0.00093982 -0.00266211 -0.00528610 0.00896755 0.01082700 0.01126227 0.02020385 -0.00712950 -0.01243585 0.01028748 -0.03163343 -0.01215227 0.00067540 0.00666217 0.01785699 -0.00194689 -0.00377291 0.02085069 0.00294606 0.00457446 0.02389009 0.04879836 -0.00949972 -0.00456056 0.05102573 0.00025291 -0.00820025 -0.00098503 -0.00207884 0.02384436 -0.00684263 -0.00856574 -0.00016476 0.00401263 0.00418393 -0.00689777 -0.16011128 0.00400098 0.00557701 0.00372939 0.00854286 0.00663310 0.00231577 0.16012613 0.00355772 -0.03152869 -0.00255834 -0.03405700 0.08617899 -0.00431964 0.01018119 0.00077674 0.04310460 -0.01054446 0.02503701 0.00451452 0.01983089 -0.01826720 -0.00710785 -0.00540049 -0.01693812 0.01771649 0.00028412 -0.00782053 -0.00387718 -0.00600422 0.00945474 -0.00393488 0.00427125 -0.00672369 -0.00684300 -0.00049324 -0.01549557 -0.01427069 0.00295598 0.00018201 -0.00560105 0.00748100 -0.00032679 -0.01084819 -0.03895016 0.00180219 0.00044865 -0.00550968 -0.03715273 0.04732840 0.01668083 -0.04590492 0.05731271 0.00441868 0.00218122 -0.00727168 0.01337946 0.08532147 0.05374220 0.00287110 0.01523037 -0.00543270 -0.01025585 -0.00044687 -0.00032748 -0.00451774 0.01012747 0.00095513 -0.01154153 -0.03658783 0.01095055 -0.00085475 0.00123598 -0.01122364 -0.00838423 -0.00225121 0.00012261 0.00063109 -0.00955113 -0.01073613 -0.07301620 0.00539525 0.01693143 -0.00515878 -0.01070150 -0.00209927 0.00087119 -0.01323193 -0.04411767 0.00052804 0.00114065 0.03559576 0.00444787 -0.04992755 0.00050704 0.00617825 -0.00093127 0.00445698 0.04669139 0.02371355 0.01210970 -0.00407566 -0.00207610 -0.04782243 -0.01687657 0.00187729 -0.01963799 -0.00504917 -0.01551509 0.01473755 -0.00033808 0.00223450 0.02732676 -0.00548307 0.00531330 -0.02272779 0.01077571 0.00321550 0.00008591 -0.00839830 0.00277516 -0.02269677 0.01751913 0.02032729 0.02460882 -0.00521613 0.03229400 0.00404294 0.00318122 0.00035792 0.00190138 0.01919202 0.01365441 0.01398062 -0.02806489 -0.00787299 -0.00169750 -0.00117191 0.01715383 0.00772351 0.02497950 0.01785136 0.01702546 -0.00415484 -0.00579957 -0.00543302 -0.04280617 -0.00195056 0.00231798 0.00080715 -0.00929224 0.00026298 0.01261430 0.02067986 0.01310987 0.04633464 0.01150558 0.00837119 0.00587385 -0.02531200 0.01208269 0.04716681 -0.00104362 0.02034585 -0.00344305 0.00923437 -0.02971297 0.00052269 0.00447653 -0.00770662 0.00096592 -0.00080180 -0.01432000 -0.02404004 -0.00270953 0.00058270 -0.00343604 0.04655314 -0.00938109 0.00202212 -0.00112179 0.00781312 0.01765224 0.00821021 -0.00259189 -0.00633479 0.00616561 -0.00281659 -0.04150945 -0.01355046 0.04432524 0.00029698 0.01910090 -0.00591016 -0.06267170 0.01721013 0.00289412 -0.00886425 -0.03312916 -0.02001007 0.01351306 0.01926863 -0.01063452 -0.01539636 -0.00036874 -0.00016024 -0.00867960 0.00020901 -0.00689695 -0.01411061 -0.00076297 -0.03762239 -0.00404854 -0.00895648 0.00256415 -0.01754757 -0.00376486 -0.00250427 0.00822727 -0.01564872 0.00124651 0.01079837 -0.00207985 -0.00347462 -0.00600551 0.03532542 0.00624474 0.01960129 0.00195568 0.00123150 -0.00601365 0.01293896 -0.00664125 -0.00381400 -0.00901058 0.01088714 0.00246291 -0.00044165 0.01411790 -0.01351132 -0.01872097 0.00109580 -0.00894896 -0.00163020 0.00607762 -0.00096860 0.00015810 0.04211839 -0.00220487 0.00509331 0.00965049 0.00941150 0.00165480 -0.00621418 -0.00246848 0.01355628 -0.00639607 -0.00414043 0.01115054 -0.00182416 -0.01712163 0.00656049 -0.01498478 0.04633175 0.00147348 -0.00154365 -0.03448260 -0.00294180 -0.03534296 -0.00879111 -0.00287721 -0.01502306 0.00920527 0.00267416 0.02198861 -0.01130991 0.00222267 -0.00178017 -0.04323866 -0.01936609 0.07463820 -0.00493926 0.00180128 -0.00025509 -0.02045486 0.02693700 0.00880664 -0.01023997 0.00280052 0.02282598 -0.00433962 0.00371456 -0.00165607 0.01122345 0.00833854 0.00404350 -0.00107701 -0.00922224 0.00780647 -0.02589375 -0.00035271 -0.03173441 0.00877419 0.00442220 -0.01412805 -0.01018255 -0.04585852 -0.00215688 0.00260241 -0.00429427 -0.00776272 -0.00286345 0.00326707 -0.01845442 -0.00223751 -0.00138741 0.00217806 0.01189923 0.08794277 0.00743424 0.01278560 0.01877382 0.00633088 -0.01723086 0.00629987 -0.00229475 -0.00011270 0.00647971 -0.00333222 0.01181130 0.00379645 -0.00963376 0.00074225 0.00433800 0.00238467 -0.03225483 -0.00509842 0.01563669 0.01395990 -0.00002579 0.15743476 0.00801153 -0.00378012 0.01425861 -0.00234827 -0.07911033 -0.01261142 -0.00954695 -0.00336416 -0.00362927 0.02901029 -0.00820059 0.00841858 0.03325266 0.00592623 -0.02884489 0.02445637 0.00052337 -0.00398241 0.02568999 0.00356247 0.04106017 -0.02681800 0.01253177 0.00681362 -0.00280485 0.01767567 0.04572592 0.01067968 -0.00726627 0.00376038 0.00261388 -0.02618016 0.01382217 0.01210725 -0.00282523 -0.00938807 0.01146847 -0.00499618 0.00063763 0.00132967 0.01923384 0.02386163 0.03787412 0.00312128 -0.01497004 0.00232444 0.01901005 0.00553710 -0.01425910 0.00201765 0.01561024 -0.00300381 0.00093171 -0.01566396 -0.01375396 0.00968151 0.00718007 -0.02518879 0.06066967 -0.00278317 -0.00461990 0.01184565 0.00495015 0.03127107 -0.00737380 0.00099252 0.00601495 -0.01254196 0.00229319 0.00178604 -0.00348563 -0.01190937 0.00224999 0.00707196 0.03005699 -0.02275874 -0.00671451 0.00465459 0.00790719 0.01438880 -0.01953729 -0.02293199 -0.00437035 0.00116703 -0.00310289 -0.01719514 -0.00908156 0.00653466 -0.02961294 0.01517557 0.00002866 0.00583383 -0.01194333 -0.00314973 -0.01741497 -0.01970209 0.01034994 0.00793861 0.05717039 -0.00439353 0.01640956 -0.00418298 0.00283174 0.00502675 0.01538921 0.02076808 -0.00165647 -0.00283094 -0.00260674 0.02983948 0.00089682 -0.00296003 0.00486221 -0.01624087 -0.00054945 -0.00239235 0.00405387 0.00914064 0.00008865 -0.02555087 -0.00495140 -0.16013327 -0.03783812 0.00934585 -0.02248848 0.04461569 -0.04049563 0.01207034 -0.00184013 -0.00572019 0.00958339 0.00611712 0.01503651 -0.00716817 0.00340802 0.01355678 -0.00508615 0.00341014 -0.16013324 0.03085879 -0.00382283 -0.00152872 -0.00094301 -0.00122862 -0.00194634 -0.00821932 -0.01496828 -0.01562725 0.00587557 0.00413064 -0.00383454 -0.02562129 0.03115088 0.01220572 0.02066694 -0.01238803 -0.02839963 0.01403715 -0.01665635 0.00063215 -0.00785230 -0.00457625 -0.00265281 0.00499920 -0.02212503 0.02480573 0.00899480 0.00342899 0.00744477 0.00049286 0.01320771 0.00046988 -0.00147220 0.00650474 -0.00185127 -0.01651216 0.01142449 -0.00492681 -0.00322584 -0.00776465 0.02973982 -0.00572566 -0.01053202 0.00185906 0.01306366 0.00125180 -0.00171127 -0.00294243 0.00393783 -0.00271229 0.01314148 0.01161891 -0.09436714 -0.02070408 -0.02600717 0.02065037 -0.00283652 0.01132775 0.01569613 -0.00121820 -0.00238819 -0.04271846 -0.00600442 -0.02641606 0.01564556 -0.00236959 0.00062240 0.08324458 0.00619453 -0.00397493 0.03000418 0.00017013 -0.01611444 -0.00339498 -0.00214953 0.00533124 0.03841329 0.01621336 0.02256934 0.16012892 0.00841605 0.02683582 0.00649128 -0.02636284 0.01085143 0.00205541 0.00038761 -0.01169656 -0.00510834 0.00652606 0.03345390 -0.00962999 0.16013317 0.00710053 0.02675101 -0.01263920 0.00704047 0.01880197 0.00273264 -0.01384761 0.01519916 -0.00392242 -0.02072871 -0.00269161 0.00688385 0.01016650 -0.00818948 -0.01801743 0.01025226 0.00092733 -0.01640336 -0.00009567 -0.01258526 -0.00104839 0.02162237 -0.00672085 -0.00145922 0.00338097 0.01037744 0.00231984 -0.05428673 -0.03477550 -0.01086611 0.00050371 0.01355767 -0.00857897 -0.00688086 0.01537307 -0.01024189 0.02231122 0.00081904 -0.00567247 0.00568396 0.02306158 -0.01119416 0.00011493 0.00082940 0.00871601 0.00119040 -0.00393726 -0.01865252 0.02160007 0.02490121 -0.00111202 0.00376530 -0.00185840 0.00240255 0.00885932 -0.00064121 -0.00165304 -0.04238879 0.00066583 -0.03281803 0.03657857 0.00167442 -0.00469360 0.00914319 0.01988562 -0.16013019 0.04056635 -0.00036292 -0.00712334 0.00092179 -0.07683598 0.03134957 -0.01147622 -0.00767458 -0.00081432 0.00022574 -0.00995355 0.01357384 -0.04266946 -0.00292994 -0.01325549 -0.00013606 -0.01259655 -0.00201010 -0.00363629 -0.01572318 0.00378510 0.15983558 -0.00204118 0.00985924 -0.01231835 -0.00170117 -0.03220189 0.00561804 0.00247742 -0.00041856 0.00921718 0.02602232 0.01457949 0.01234484 0.15173399 -0.00495159 0.00433671 0.00365188 -0.00798270 0.00303364 0.00667028 -0.01736165 -0.02598974 -0.00279703 -0.00499521 -0.00485376 0.01381127 -0.00494468 -0.00140175 -0.00225418 -0.10120974 -0.01020171 -0.00517152 0.00480925 -0.00157599 -0.01262335 0.02486783 -0.00169977 -0.00553650 0.00841122 0.00162240 -0.00733191 -0.00475248 -0.01255669 -0.00004166 0.01319364 0.01700955 -0.16013305 -0.00271910 -0.00195899 -0.00195442 -0.00579815 -0.00594022 -0.02518853 -0.00544346 -0.01266938 0.02003627 0.00755922 -0.00846678 0.00112613 -0.01645583 -0.00051483 -0.01266360 -0.00494797 -0.00721084 0.03071757 -0.02047734 0.00366838 0.00042393 -0.00187764 -0.00000710 -0.00020935 -0.00614258 0.00845281 -0.01193204 -0.01031708 0.00630267 0.00301785 -0.00932292 
I-bought-a-Living-social-groupon-earlier-in-the-year,-intending-to-save-it-for-after-the-hell-that-is-Restaurant-Week. -0.00146638 -0.00991904 0.00388709 0.00170072 0.00776342 -0.00620104 0.01120172 -0.09969236 -0.01281627 -0.00607644 0.02392329 -0.00000096 0.00508534 -0.00123898 -0.00036266 0.00145067 -0.00859291 -0.00192208 -0.00679304 0.01988454 -0.00626500 0.00042087 0.00887137 0.00253930 0.00152450 -0.00443039 -0.02728190 -0.01175990 0.00390097 -0.00754547 -0.00011398 0.01008390 0.00752649 0.00031598 -0.02305906 -0.02822436 0.00807096 -0.00724071 -0.01045913 -0.00821679 -0.00759308 -0.00143578 0.00534819 -0.08922242 0.07713564 0.02248756 0.00997473 0.00091625 0.00463395 0.00445030 0.08747921 -0.00492449 -0.00330872 -0.00427557 0.00495030 0.00155102 -0.00483042 -0.03227545 -0.00938080 0.00541257 0.00040295 -0.00726622 0.00044835 -0.00301988 -0.00479677 0.02505312 -0.00444100 -0.00118089 0.00444923 0.00308920 0.00834787 0.00288694 -0.00485026 0.00328845 -0.00165339 -0.00320901 0.00265860 0.01522975 0.01672185 0.00094123 -0.00658547 -0.00224344 -0.00149198 -0.00073337 -0.01081125 -0.00826293 -0.02505375 0.00918266 0.00758986 0.00087730 -0.01146702 -0.00012593 0.00437233 0.01208520 -0.00197937 -0.00339696 -0.00745772 -0.00434211 -0.00126289 0.00645469 0.01494157 0.00695555 -0.00491649 -0.00115598 -0.03810630 0.00854629 0.00927175 -0.00008800 -0.00472036 -0.00259681 -0.00006417 -0.00405983 -0.00687498 0.00396370 0.00173869 0.01081939 -0.00603574 -0.08803891 -0.09021325 0.00067823 -0.00246376 0.00289730 -0.00883922 -0.01405125 -0.00141594 0.01616859 0.11064893 0.00655256 -0.00871275 -0.02036627 0.02150024 0.00455142 -0.01354527 0.00452907 -0.00186198 0.00171233 -0.00792721 0.00503703 0.00363011 -0.00282571 0.00788350 0.00100773 0.00335635 0.00984329 -0.02188075 -0.01907993 -0.03245310 0.00965426 -0.00222627 -0.00674139 0.00058750 0.00305659 0.00013962 -0.00007683 0.00054432 0.00602131 0.00172774 0.00007859 -0.00033489 -0.00701846 -0.00507921 -0.01699734 0.00513921 0.00540315 -0.00212033 0.00440285 0.00655727 -0.12091655 0.01271866 -0.01376357 -0.00656542 -0.00556951 -0.00283692 0.00983474 0.02761275 0.00698734 0.00547486 -0.00495249 -0.00076144 -0.00724229 0.00374964 -0.00340683 -0.00567779 -0.00830376 0.00732882 0.12096135 0.00151906 -0.00948212 -0.00945889 -0.00322714 -0.00236285 0.00961340 0.01197480 -0.00184011 -0.00776209 0.00669097 0.00292408 -0.00343603 0.00008316 0.00149920 -0.00101023 -0.00035792 -0.01163936 0.00145665 0.00269990 -0.00702197 0.01689392 -0.02129601 0.00048352 -0.00159974 -0.00689927 0.00383312 -0.00019243 -0.02582077 -0.00321148 0.03170489 0.00438356 -0.00840735 -0.00507422 -0.00097363 -0.01048584 0.01146802 -0.00937903 -0.00017276 -0.00163452 -0.06970952 -0.00808248 0.00085368 -0.01958085 0.00083450 0.00027672 -0.00180730 -0.00656828 -0.00051091 -0.00153183 -0.00413089 -0.00256973 -0.00383423 0.00300714 -0.11508162 -0.00633385 0.00048243 0.00039108 0.00567019 0.00705335 0.00339461 -0.00552362 -0.00269071 -0.01159462 -0.00813756 -0.00074047 0.01939404 -0.00098245 -0.00307803 -0.00143835 0.03473917 -0.00677541 0.00493585 0.12119633 0.00891773 -0.00032573 0.01277828 -0.00009985 0.00436920 -0.00207926 0.00085143 -0.00701253 0.00998318 -0.00015333 0.01151199 -0.04250729 0.00262185 -0.00806739 -0.00205375 0.00671119 -0.03246247 -0.00208798 -0.00539268 0.00183916 -0.00829769 -0.00542800 0.00973223 -0.02691555 -0.00097292 0.02135933 0.01021131 -0.00656714 0.00134955 -0.00004254 0.00056056 0.01370172 0.01295425 0.00990881 0.00278982 0.00923702 0.00076785 -0.00159611 -0.00279254 -0.00738911 0.00269785 0.04813884 -0.01936987 -0.00289415 -0.00054059 -0.00024812 -0.01823858 -0.00282243 -0.01564790 0.03608572 -0.00125608 -0.02514997 0.00348116 -0.00049199 -0.01483973 0.00293838 -0.05609192 -0.00442991 0.00000635 -0.01989669 0.01992430 -0.00045042 -0.00382992 -0.00160166 0.00117965 -0.05503907 -0.00520344 0.00012367 0.02105369 -0.02187976 -0.00000869 0.01243990 0.00160997 0.00455125 0.00290082 0.00631743 -0.00439182 0.01056731 0.00305736 -0.00834238 -0.00635716 -0.03464730 -0.00548018 0.00440803 -0.00084255 -0.00467071 0.00143867 -0.01175410 -0.00268072 -0.00283861 0.02187230 0.00914884 0.00328914 -0.00313489 0.00571180 -0.00022155 0.00011966 0.00251737 0.00092637 -0.04401614 -0.00632085 0.00120866 0.00886142 -0.00252388 -0.00418815 0.00543609 0.00008979 -0.00107287 0.01492432 0.00477517 -0.00438757 -0.00185553 -0.01024728 0.00126687 -0.12110858 0.01408989 0.01061622 0.02270549 -0.01402237 -0.00729053 0.00197881 0.12115218 0.00205405 -0.01024957 0.01096811 0.00588176 0.01947664 -0.00269446 0.00247229 -0.00104578 0.01637826 -0.00054637 0.00534685 -0.01209978 -0.00069568 -0.00015222 0.00004046 0.01963880 0.00330212 0.00173469 0.03000866 0.01659297 0.00618043 0.00322438 -0.00421011 -0.01003535 -0.00370427 0.00485960 -0.00528524 -0.00461411 -0.00469511 0.00097004 -0.00301371 0.01562679 0.00900310 0.00018016 -0.00291258 0.01540960 0.01037278 0.00123271 -0.00536007 0.01234245 -0.00692248 -0.00051554 0.00358031 0.00320645 0.01476333 -0.00007259 -0.00170357 -0.00564272 -0.00829399 0.00727301 -0.00103576 0.00031850 0.01077482 -0.00156371 0.00055340 -0.00344144 0.00130912 -0.00277149 0.00179174 0.01359058 0.01858764 -0.02983303 -0.01253638 -0.00666659 -0.01901568 -0.00525721 0.00287119 -0.00127082 -0.00299521 0.00593892 0.00281275 -0.00427987 -0.00328725 0.00009501 -0.01238040 -0.00687076 -0.00350902 -0.00723783 -0.00370592 0.01758688 -0.00494957 0.00285455 -0.00668151 0.00480983 0.01184273 0.05889614 -0.00229254 -0.00562942 0.00551151 0.01651707 0.00010221 0.00129044 0.00992048 0.00136266 0.00171321 -0.00151837 0.00348614 0.01423443 0.00062948 -0.00247570 0.03511659 0.00015042 -0.00792851 -0.00395270 -0.00704427 0.00234185 0.00832212 0.03627630 0.00154168 0.00399831 -0.00602895 0.01282475 -0.01636878 -0.00971452 -0.03061906 -0.00741781 -0.01276583 -0.00829415 0.00354281 0.04329719 -0.00130319 -0.00114471 -0.00018948 0.01157788 0.00172229 0.00246142 0.00293871 0.00347297 0.00920667 -0.00652165 -0.00057714 0.00731656 -0.00878877 -0.00060305 -0.00114246 -0.02034197 -0.00282558 -0.00003816 0.00704210 0.00032683 0.05628997 -0.00556288 -0.00024953 -0.00017896 0.00079174 0.00717645 -0.00149326 0.00004547 0.00297853 -0.12119582 0.00539400 0.00765869 0.00254617 -0.00594692 0.01238897 0.00493455 0.00092042 0.02100790 -0.01158653 0.00798581 -0.00179666 0.00225955 -0.00703344 -0.00265988 0.00450080 -0.00188067 -0.00145707 0.00277313 -0.00080625 -0.00088165 -0.00049632 -0.00864442 -0.00977800 -0.02215880 -0.01314400 0.00060954 -0.01133843 0.00068797 -0.00814905 -0.00761398 0.00402608 0.00516403 -0.00084558 0.11810277 0.01551293 -0.00197897 -0.01252065 0.04222659 0.00129465 -0.03700426 -0.00220049 -0.00585934 -0.00117944 0.00457032 0.01059242 -0.00112543 0.01143983 -0.00714486 -0.00347695 0.00013964 -0.00500072 0.00178978 0.00401050 0.00027517 0.00045867 0.02127973 -0.00944167 -0.00220216 -0.00276304 -0.00053367 0.00725609 0.00170501 0.00070954 -0.00347471 0.00629619 -0.00721403 -0.01907958 0.00893143 0.00445529 0.00460943 0.00062162 0.00080936 0.01393217 0.00479447 -0.00192916 -0.00016341 -0.00658937 -0.01180356 -0.00512206 0.00327179 -0.00464943 0.00020127 0.00105328 0.00079177 0.00116820 -0.01469160 -0.00027730 -0.00477839 -0.00094164 0.00169939 0.00166796 0.00212678 0.00381129 0.00237160 0.00473278 0.01016819 -0.03498854 -0.00230860 0.00024013 0.00247975 -0.12115735 -0.00106666 0.00831925 0.00304944 -0.00107800 0.00328763 -0.00854730 0.02362410 0.00646891 0.00095123 -0.03515012 -0.00012751 -0.00150315 0.00164742 0.00695889 -0.00390460 0.00610348 -0.00710909 -0.00006034 -0.00281764 -0.00390815 -0.00781537 0.00129922 0.00099695 -0.01672831 -0.00094140 -0.00301036 -0.00767725 -0.01152756 -0.01163143 -0.01597231 -0.00181791 0.00164263 -0.00164842 -0.00336522 0.00270191 0.00117277 0.01315136 -0.00529604 0.01145940 -0.00240544 0.01188240 0.02989890 0.00554049 0.02537839 0.00044951 -0.00282241 0.00029260 -0.00025601 0.00052641 -0.00260076 0.00818423 0.01156216 -0.00183017 0.01095112 0.00403548 0.00674251 -0.04379641 0.00059021 0.00014544 0.00219335 0.00382195 0.01812082 0.00037767 -0.01111433 -0.00021903 -0.00024934 -0.00440134 0.00931441 -0.00450466 -0.00900156 -0.00245186 0.00022052 0.00305810 -0.00068937 0.00149668 -0.00457973 0.00541578 0.00749270 -0.00113406 0.00008742 -0.00028497 0.00188156 0.00184446 0.00103858 0.00140390 -0.00468740 0.00450891 -0.00662265 -0.00775318 0.01047448 0.01030051 0.00310634 0.00524701 -0.07707647 0.00845130 0.11925761 -0.00753631 0.02708815 -0.00769186 0.00468503 0.00157525 0.00537045 0.01486111 -0.12064352 0.01264069 0.00417215 0.00867942 -0.00965975 -0.00687186 0.01424756 -0.00701891 -0.00194726 -0.00224107 -0.00217692 0.00795160 -0.01061603 -0.00682109 0.00019056 0.00018943 0.00150041 0.00060740 0.00907836 0.00319804 -0.00028909 0.08458062 0.00615139 0.00160282 -0.00659102 0.00018390 -0.10274188 0.00383197 0.10621799 -0.00287254 0.00561816 0.00649936 0.00335386 0.00898647 0.00685803 0.00074718 -0.00779491 0.00619984 -0.00049920 0.00780259 0.01240342 -0.01087879 -0.00299523 0.01344698 -0.00360433 -0.01115282 0.00332128 -0.00317833 0.00334373 0.03278313 0.00193308 0.01267637 0.02903816 -0.00019768 -0.00565708 -0.00068987 0.01276273 -0.01940878 -0.00732028 0.00367637 -0.00912723 0.02242918 0.01043371 -0.02779998 0.00465114 0.00667617 -0.00739968 -0.00067726 -0.00300082 0.01157378 0.08627688 -0.00090237 0.00015613 0.00146727 -0.04735078 -0.00149132 -0.07502112 0.01362927 -0.01755107 -0.01039800 0.03196239 -0.00297671 0.00447168 0.02263106 0.02839491 -0.00354359 -0.00846849 -0.01312448 0.00583367 -0.00038642 -0.00106203 0.00516663 -0.00005432 0.00468915 -0.01892116 0.01142391 -0.00535448 0.00037106 -0.00681555 0.00011429 0.00803945 0.01102162 -0.01064191 0.00877931 0.01881793 0.02184395 0.00545984 0.00090255 -0.00272263 -0.00167175 0.02138972 -0.00342491 0.00191789 -0.04269692 0.00223921 0.00487057 -0.11090734 -0.00547756 0.02337248 0.02104749 0.00611177 0.00515184 0.00029203 -0.00051650 0.00122204 -0.02835539 0.00135921 0.00977967 0.00126819 0.00509043 0.00302594 -0.01548534 0.00009939 0.00143637 -0.00599279 0.01288556 0.00424576 0.00266331 0.00128681 0.00165344 0.02266702 0.00640154 0.00481401 -0.00584550 0.06449547 -0.00623511 0.00380481 -0.00231918 0.01060757 -0.00926475 -0.00954898 0.01128659 -0.00920607 -0.00702951 -0.00029018 -0.00301857 -0.01339347 0.00920804 -0.00185526 -0.00912682 0.00330685 -0.00526544 -0.00555369 0.00254397 -0.00522057 -0.00085570 -0.00070617 -0.00220133 0.00482259 0.00036962 0.00379263 0.01082708 0.01854916 0.00250026 0.00547443 -0.01880197 -0.01029425 0.00040457 0.02361766 0.00771508 0.00207122 -0.00803137 0.00356807 0.01006101 -0.00677891 0.00509760 -0.00558342 -0.00574065 0.00386542 -0.07319869 -0.00624311 0.01136128 -0.00516439 0.00489134 -0.00362329 -0.00189863 0.00301053 -0.01770213 0.00121087 -0.01424674 -0.00125181 -0.00209000 0.00693646 -0.00401305 0.00482165 -0.00069810 0.00108235 0.00776249 -0.00008911 -0.01378450 -0.00568387 -0.00834382 0.01009771 0.00191780 -0.00659329 -0.00453161 0.00765363 0.00116841 -0.02661309 -0.00562832 -0.00047815 0.00567782 0.00136839 -0.01282570 -0.00101743 0.00121601 -0.00204392 0.00329401 -0.00062691 0.00296356 0.00168533 -0.12105137 -0.00447863 0.00341492 0.00602439 0.01134476 0.01019563 0.00682418 0.01347660 0.00130695 -0.00293235 0.00139077 0.00046156 0.01010020 0.00142310 0.01372616 0.00222969 -0.01698907 -0.03558387 0.01351580 -0.00058182 -0.00120716 -0.00720285 -0.00191163 -0.00190666 -0.00311301 0.01731263 -0.00298408 0.00158587 -0.00510529 -0.00236017 0.09651420 0.00025767 0.00508679 0.00029296 0.00494291 -0.00170043 0.01616454 0.00180899 0.00111407 -0.00923133 -0.00579943 -0.00489878 0.00106974 0.00191677 -0.02489243 -0.00010066 -0.00890283 0.00649807 -0.00501917 0.03629379 -0.00813595 -0.00422736 -0.00196382 0.00999689 0.00950672 0.00126506 0.01401415 -0.02458193 0.01576054 0.00135094 0.01728504 0.00181714 0.00048502 0.00583592 0.00129386 -0.00456137 0.00451083 0.01389316 -0.04205604 -0.00167198 -0.00076252 -0.01038770 -0.01401694 -0.07049456 -0.00094319 -0.00087364 0.05338918 0.00175943 0.00176483 0.00265535 0.02646872 0.01665003 0.00028145 -0.00844619 0.00364656 0.00527090 -0.05243373 0.01929250 -0.00280494 0.00198057 0.00404996 -0.00268784 -0.01230244 0.00921652 -0.01859601 -0.00777019 -0.01052204 -0.00674271 -0.01254414 -0.01136275 -0.00947429 0.01645919 -0.00078122 0.01797572 -0.00171955 0.00495905 0.00490164 -0.01279974 -0.00347912 0.01427779 0.10768802 0.00111910 0.06400933 -0.00252147 -0.00073152 0.00200591 0.00204515 -0.00690789 -0.03215958 0.00700465 -0.00203916 -0.00365053 0.00475186 0.00928104 -0.00046679 0.00804646 -0.00063913 -0.00092172 -0.01853010 -0.01895436 0.01463782 0.00710505 0.00722286 -0.00758269 -0.07772712 -0.00319204 0.00423551 0.03468699 0.00466073 0.00041963 -0.00307124 0.00025883 -0.00334055 -0.00221230 0.03323965 -0.00886076 0.01335577 -0.00336308 0.00032898 0.00782362 -0.00496040 0.00432667 0.00039477 0.01864811 0.00004773 0.00653025 0.01455312 0.01634359 -0.03668389 -0.00178336 0.01086223 -0.01096548 -0.00095356 0.00144506 0.00778730 0.01056920 0.00037502 -0.00603938 -0.00443939 -0.00718623 0.01097341 -0.00815271 -0.00906046 0.00043621 0.00174160 -0.00377232 -0.00455652 0.02737570 -0.00941787 0.00985775 -0.00395401 0.00924000 0.00049318 -0.00211149 -0.01297295 -0.04303158 0.00710036 -0.00567575 -0.00009075 0.01053339 0.00861496 -0.10686871 0.00091618 0.01029134 0.00138183 0.00317802 -0.00199441 -0.00473132 -0.01072212 0.02985484 0.00526483 0.00450423 -0.00177515 -0.00036719 0.00531699 0.00090252 -0.03720349 -0.00102470 0.00284736 0.07813825 -0.00052774 0.01332325 -0.06092284 0.00836441 -0.02888847 0.00051355 -0.00068577 0.00853140 0.00296331 -0.00122966 -0.00780829 -0.02829279 -0.00733385 -0.00682517 0.00457851 0.01417214 -0.00667236 -0.00522754 0.00529696 0.00075361 0.00464645 0.00071078 -0.00676393 -0.00707342 -0.01255747 0.01191872 -0.00864969 0.00188211 -0.01650477 0.00061310 -0.01509396 -0.01195513 0.00972739 -0.00498681 -0.00880209 0.01968560 0.00033273 0.00095225 -0.00213530 -0.00030972 -0.00189327 0.00501695 -0.01263894 0.01295022 -0.00090891 -0.00199912 -0.01897345 0.00000681 -0.00080888 0.00056155 0.00147939 -0.00144581 0.00224796 -0.05817365 -0.00057164 -0.00279038 -0.00134528 -0.06288037 -0.00084176 -0.03219393 0.00922060 -0.00856305 -0.00013266 0.00857603 0.00660962 0.01673156 -0.00134644 0.00473340 -0.00305152 -0.00618989 0.00410775 0.00304765 -0.00771109 0.00968986 0.00041212 0.00897647 0.00424935 -0.00276909 0.00523754 -0.00217269 0.01091229 -0.00544883 0.00926443 0.00112479 -0.00659435 -0.00367150 0.01156471 0.01587573 -0.01400942 0.00392946 -0.00016354 0.00255516 0.10712212 0.00426534 0.02794054 -0.00041202 0.00475546 -0.00746241 0.00076359 0.00057038 0.03331717 0.01029113 -0.00418981 -0.00253220 -0.00031379 -0.12119778 -0.01496350 0.01637022 -0.00479707 0.01297805 0.00164947 -0.01543358 -0.00647218 -0.00834155 -0.00388278 0.00778862 -0.00472461 0.00210150 -0.00458383 -0.01530693 -0.01701286 -0.00409291 0.00941823 -0.00818526 0.00410493 0.00015885 -0.00289617 -0.01557315 -0.00261953 -0.11140361 0.00255443 0.00083375 0.00108647 -0.01529451 0.00962692 0.00177131 0.01827372 -0.00341444 0.01178953 -0.01509027 0.00766195 -0.01785718 0.00686121 0.01071139 0.02190454 0.05126055 -0.00053703 -0.00745837 0.00055996 0.00521419 0.00382531 0.00172427 -0.00456726 -0.00268274 -0.00105733 0.01211185 0.01158320 -0.00383659 0.00197633 -0.00291353 0.00596836 0.01470963 -0.02058885 0.00147048 0.00749987 -0.00934653 -0.01113368 0.03537857 -0.00790177 0.00495991 0.00157616 0.00460071 -0.01516357 0.03123900 0.01058813 -0.01017803 -0.01161266 -0.00006003 0.00183806 0.02460213 -0.06990327 -0.00012901 0.00133087 -0.00406178 0.00428006 0.00515375 0.00612412 -0.01172493 -0.00867882 0.12109005 0.10852212 -0.00199961 0.00314175 -0.02548321 0.05047366 0.02129543 -0.00938795 -0.00160407 -0.00100867 0.00082339 -0.00144447 -0.00310500 0.03290157 0.03611100 -0.02517504 -0.01570533 -0.00877539 0.00118565 0.00191770 -0.01055589 0.00184139 0.00217834 0.00037697 0.00016380 0.00017155 0.02950327 0.01097508 0.00157766 0.00385285 0.00208801 -0.02844863 0.00323177 0.01374675 -0.00871172 0.01007825 0.01085348 0.01274226 0.01090901 0.00196476 -0.00098035 0.00063261 0.00351940 0.01344016 -0.00546352 0.00515774 0.00983424 0.01111453 0.00064251 -0.01288893 0.00075784 0.00145053 -0.00134171 0.00050690 0.00184362 -0.00373267 -0.00046939 -0.00048238 -0.00223019 -0.00392727 0.02960653 0.00728766 0.00269101 0.00733312 -0.00729930 0.01734263 0.00100328 -0.01270926 0.00100903 0.00395838 0.00299969 -0.00026214 -0.00599538 -0.00341150 -0.00506640 0.00208606 0.00737117 0.00431004 0.00797382 -0.00548960 -0.00045861 0.00827777 -0.01210275 -0.00338391 -0.01815271 -0.02879563 -0.00034156 0.00454218 -0.01559511 -0.00798418 0.00794044 -0.00399648 -0.00370098 -0.01230099 -0.00005061 0.01101868 -0.00328147 -0.00475589 -0.00528744 -0.00741208 0.01006579 0.00040317 0.01886700 -0.00269462 0.00228261 -0.00856948 -0.00010033 0.00117491 -0.00149419 0.00549285 0.01228050 0.00063014 0.00222289 0.00415293 -0.00040850 -0.00274493 0.00225592 0.00025622 0.00829338 -0.00073079 0.00042081 -0.00397195 -0.00790802 0.00079562 -0.00421808 -0.00071271 -0.00685832 -0.00607544 -0.00653885 0.00082591 -0.00002722 -0.00077905 -0.00626503 0.00025153 0.00409714 -0.00062279 0.00214026 -0.00391587 -0.00605092 0.00117211 0.00667071 0.00028415 0.00460714 0.00522485 0.00851106 -0.12117197 -0.00614779 -0.00059821 -0.00533847 -0.01143123 -0.00364004 -0.04499922 -0.00776940 0.00057571 0.00175262 0.00835972 0.00193951 -0.00007487 -0.00022648 0.00746548 0.00512822 0.00185873 -0.00073055 0.01125789 0.00540299 0.00231607 0.11525151 -0.00036121 0.00100921 0.00158132 -0.00075276 0.00186929 0.00526927 0.00522167 0.00616193 0.03141057 -0.00491791 0.00272420 -0.00743718 0.01867894 0.00362089 -0.00624816 -0.00301049 -0.00533005 0.00055519 -0.00549891 0.00907700 -0.00884208 0.00406054 0.00822215 0.01371557 0.00911622 -0.01677248 0.00342682 0.00305370 -0.00829960 -0.07896525 0.00073852 -0.01537778 -0.00440594 0.00291928 -0.00064820 0.02654877 0.00185142 0.00679161 0.00393488 0.00388374 -0.00081171 -0.00574738 0.01640879 -0.00433108 -0.00441354 -0.00430948 -0.00547875 -0.12116399 0.01236448 -0.01226883 -0.00191018 0.00892131 -0.00370345 -0.00335508 -0.00503666 0.00604834 -0.00026319 0.00497641 -0.01720443 0.00158865 -0.00027396 -0.01246710 -0.10179296 0.00200375 -0.00644856 -0.11500482 0.00182377 -0.00565127 -0.02698663 0.00382710 0.01386160 -0.00806219 -0.00691692 0.00346812 -0.00334429 0.01099581 -0.00136212 -0.00091032 0.00015600 -0.00693012 -0.01224186 -0.00494116 0.00973062 -0.00590861 0.00061027 0.00230527 -0.00370364 0.00637275 0.00187823 -0.00436382 0.04461765 0.00122659 0.00034183 0.03474328 -0.00008097 -0.00213873 -0.00666008 -0.00000338 -0.01824635 -0.00137954 -0.00238094 0.00222434 0.00907854 0.00733508 0.00198818 -0.01655518 0.01547589 -0.00069023 -0.00278614 0.02581912 0.09828341 0.01016169 0.00063152 -0.00669727 -0.00515403 -0.01125551 0.00859445 -0.00120542 0.01509319 -0.00340036 0.00643348 0.01742927 0.01425863 -0.00671894 -0.00451556 0.00738933 -0.00281363 -0.00049896 0.00444028 -0.00137742 0.00351221 -0.01175197 0.04638926 0.00020398 0.00127293 -0.00739139 -0.00665448 0.00368302 -0.00018901 -0.00251353 -0.00694419 -0.00407198 0.00399993 0.00633582 -0.00585202 0.03030717 0.10901137 0.00142065 0.00290246 0.01005886 -0.00845107 -0.00258224 -0.00444630 -0.00137892 -0.02324085 0.00707386 0.00183403 0.01999748 -0.00233938 0.00179128 0.00817862 0.00005530 0.00643828 -0.00278207 -0.00091658 0.00161081 0.00278139 -0.00155957 0.00172314 0.00153461 -0.00803295 0.00014409 0.00189189 0.00209658 -0.00189961 -0.00375103 0.00461109 -0.00450404 0.05240826 -0.00987862 0.01069330 -0.00607947 -0.01129494 -0.01050214 0.00302442 -0.00362270 -0.02030643 -0.00491394 0.00850576 0.01375777 0.00383304 0.00058663 0.00080577 -0.00478029 -0.00336154 -0.00073328 -0.02499198 -0.00036936 0.00551704 0.00205570 -0.00278585 -0.00572460 -0.01496089 0.00209951 0.08844827 -0.08768645 0.00083138 -0.00360569 0.00111877 -0.00432457 0.11901268 -0.00085490 0.00197335 -0.00520973 0.00664510 0.00297128 0.00485821 -0.00664754 -0.00218623 0.00168890 0.00174131 0.02648174 -0.00573446 0.00333721 0.00357700 0.00822553 -0.00141816 -0.00424636 0.00190076 -0.01010514 0.00153036 0.00310198 0.01794317 0.00096682 -0.00083278 -0.00625641 0.00876204 0.00502393 -0.00760823 -0.00442473 0.00493351 -0.00863378 -0.03018973 0.00160061 0.00147250 0.00154399 -0.03072738 0.00122828 -0.01164836 -0.00960709 0.00125622 0.07308911 0.00185711 0.00076975 0.00261061 0.02023764 -0.00338121 0.00366602 -0.00730933 0.00370982 -0.00397380 0.00550306 0.00633402 0.02169191 -0.02695971 -0.00869697 -0.01344429 0.00426205 0.00460144 -0.00060272 0.00841155 0.10985663 -0.00077845 0.00933850 0.00288771 0.00906665 -0.00390263 0.01031570 0.00037047 0.01380226 0.06483538 -0.02056790 -0.00169620 -0.00260694 -0.00884775 0.01065927 0.01731458 -0.01638476 0.00531707 0.01145420 -0.00622647 -0.00799670 -0.00138544 -0.00032425 0.00162033 0.00027263 -0.00526040 -0.01136364 0.01294684 0.00542882 -0.00736871 -0.01068200 0.00114763 0.01938518 -0.02438732 -0.00534533 -0.00016263 -0.08102231 0.00095782 0.01853514 0.01584615 0.00591341 0.00093220 -0.00060215 0.00323381 0.01666639 0.00063852 0.00159882 0.00646485 0.00792478 -0.00392102 0.00401900 -0.02235865 -0.00166501 -0.00027480 -0.01635772 -0.00344101 -0.00056693 -0.00040502 -0.00094375 0.00227160 -0.00357426 0.00220086 0.00207108 0.01585324 0.00552130 0.00222448 -0.00618044 0.00104677 -0.02377533 0.01072221 0.01377815 0.00396188 -0.00369810 0.01226529 0.00484169 0.00140768 0.00105123 -0.01315871 0.02928993 -0.00416127 0.01371785 -0.00141372 0.00054159 -0.01299022 -0.00460173 0.03109993 -0.00592449 -0.00848490 -0.00084876 0.01099937 0.00088167 -0.00051494 0.00100432 0.00420608 -0.00040207 0.12062278 0.00012699 0.00040385 0.00551305 -0.00467297 0.00145282 -0.00968183 0.00260996 0.01525137 0.00117340 -0.00539924 -0.01210697 -0.01311722 -0.00259669 -0.01207036 -0.00463114 0.02831055 -0.02033467 -0.01026563 -0.01057548 0.06205236 0.00145943 0.00077561 0.00547866 0.00206658 -0.01216208 -0.01143231 0.00043036 -0.01025287 0.00236054 0.00211539 -0.01095988 0.00245901 0.00546777 -0.00000172 -0.00062819 0.00580238 0.00358166 -0.00292764 0.00022216 -0.00492076 -0.03360727 0.00159284 0.00339105 -0.00218662 0.00133966 0.00166180 0.00296101 0.00187676 -0.00770939 -0.01511245 0.01580289 -0.00199097 -0.12112375 0.00187477 -0.00586840 0.00520577 0.03065873 -0.00183324 0.00938062 0.01229699 0.01212146 -0.00346120 0.00311818 0.00061563 0.00165732 -0.01254812 0.00566121 0.00835126 0.00797850 0.00880212 -0.00322818 0.00332179 0.00518258 0.00342696 0.00192514 0.00015567 -0.00284557 -0.01024510 0.00649798 -0.00435798 -0.01331418 0.00063213 -0.01437185 0.01320860 0.00506936 0.00008505 0.00063776 -0.00370288 0.00010647 -0.00296499 -0.00790223 0.00569780 -0.01050983 -0.02156235 0.00046138 0.01999459 0.04649206 0.00653604 0.00832030 0.01713057 -0.01984840 0.00045860 0.00689431 -0.00028679 -0.00617829 -0.00310404 0.00952073 -0.00539315 -0.01146093 -0.01036720 -0.00617789 0.00125598 0.00555951 -0.02563040 -0.00373412 0.00189401 -0.00226108 -0.00014709 -0.01474962 -0.01564479 0.00244999 0.00173982 -0.00245991 -0.00033181 0.00272090 -0.00470730 -0.00020447 0.00607221 -0.00141896 -0.00084037 -0.00715935 0.00044878 0.02590366 -0.00674952 0.01279364 0.00882476 0.00639679 0.00975454 -0.00458710 0.00008231 0.00397935 0.00376187 -0.00088978 -0.00402913 -0.12020871 -0.00820398 -0.01914690 -0.00042715 0.00279368 0.01094884 0.07850028 -0.01454132 -0.02900157 0.00561545 0.00377081 -0.00112725 0.00861990 -0.00742161 0.00095509 0.00569658 0.00003025 -0.00363717 -0.00832374 0.00072317 0.00104138 -0.00238825 -0.00056859 -0.04561309 -0.00494294 0.00347905 -0.01276454 0.03191876 -0.01239779 -0.01393948 0.01225033 0.00661385 0.00486029 -0.01099914 0.00408691 -0.00098850 -0.00072904 0.00159933 0.09252910 -0.02683342 0.00019758 -0.00017279 0.00002821 -0.00038784 -0.00148625 -0.02540498 -0.03531860 0.00390574 0.00036671 -0.01148079 0.00194292 0.00434839 0.00944323 0.00036888 -0.01677172 0.02728290 -0.00456512 -0.00339581 -0.00404090 -0.00349587 0.00053335 -0.00500192 -0.00018190 0.00018887 -0.01041967 -0.00021214 0.00333819 -0.00179126 0.04298478 -0.00346664 0.01359005 0.00321620 0.00155766 0.01114266 0.02782473 -0.00154987 -0.00640893 -0.00078160 0.00424736 -0.00522398 0.01817264 -0.00398917 0.00031180 0.00045483 -0.00481927 0.00531224 -0.00758417 -0.00191639 -0.00315638 0.00451050 -0.01576843 0.00402847 -0.00045005 -0.00310257 -0.00241658 0.00252006 0.00166931 0.01450942 -0.00594518 0.00705000 -0.00309888 0.00203450 0.00144305 -0.00757946 -0.00878237 -0.00259208 0.00912039 -0.00937261 0.00144442 0.00277719 0.00394733 -0.00561816 -0.00358521 0.00018217 0.01425959 0.01171819 -0.00483725 0.04349581 -0.00228634 -0.00759633 -0.00154129 0.03234843 -0.00865237 0.00112305 0.00000710 -0.00032609 0.00422527 -0.00225397 0.00040683 -0.00059082 -0.00047744 -0.00106897 -0.00995594 -0.00010991 -0.00018668 -0.00921989 -0.00650179 0.00194452 0.00110714 0.00847857 -0.00463275 -0.00313115 0.00987898 0.11940911 -0.01119700 -0.00016480 -0.00698864 -0.00042690 0.00984959 0.00295437 -0.00322001 -0.00001276 0.01696561 -0.05334313 0.00076686 -0.01555044 -0.00706341 -0.00571962 0.00223673 -0.00997511 -0.00981943 -0.00133505 0.00135171 -0.00462803 0.04477217 0.00244517 -0.00045490 0.00794210 0.00230735 -0.00851812 0.01274234 0.00159907 -0.05442005 -0.01961817 0.01472756 -0.00011229 0.00410559 -0.00039885 0.00033367 -0.00030940 0.00416247 -0.00600003 0.00757906 -0.00185579 0.01176648 -0.00646402 -0.00293317 -0.00049700 0.00139060 -0.00110074 0.00672422 -0.01807949 -0.00522829 0.00034694 -0.00895724 0.01147399 0.00028256 0.00030944 -0.00225046 0.00137797 0.00066074 -0.01051446 0.01004034 0.00586333 0.00512340 0.00091954 -0.00238130 -0.00402120 0.01104634 -0.00753416 0.01715675 0.01315490 0.00243140 0.00739981 0.04145145 -0.01211210 -0.00147485 -0.00933371 -0.00700213 0.00221898 -0.00143216 0.01038631 0.00123928 0.00174160 0.00120418 -0.00431545 0.00000566 0.00121122 -0.00084555 0.01304214 0.01291510 -0.00467716 0.00585610 0.00541304 0.00941957 -0.01339030 0.00283221 -0.00107027 0.00294926 -0.00103435 -0.00025793 -0.02246512 0.00191407 0.02166289 0.00957437 0.00342597 0.01369179 -0.00606497 -0.00038834 -0.00182381 -0.00678043 -0.00733817 0.00215342 -0.00211755 -0.00660496 -0.00227335 -0.02924405 -0.01084496 -0.00082950 -0.04310770 -0.00161886 0.00900364 0.01925125 -0.00401214 -0.00200863 -0.11690772 -0.01418925 0.00653639 -0.00105266 0.00722848 -0.00554191 -0.00017364 0.00639236 -0.00040631 -0.01292219 0.00012407 -0.02429760 -0.00047996 0.01978330 -0.00650785 -0.01528452 0.00473600 -0.00659720 -0.00461067 -0.00778536 0.00057659 -0.00069261 -0.01079904 -0.00157004 -0.00528465 0.01084453 -0.01793494 -0.01823411 0.00139002 0.00945744 -0.00496145 0.00309231 -0.00477162 -0.01492500 0.01383774 -0.03120280 0.00420100 0.01302421 0.00404680 -0.00713089 -0.00102760 0.01067093 0.09348901 0.00051684 0.00444754 0.00035812 0.00015996 0.00452121 -0.01215364 -0.02396898 0.01500881 0.00052948 0.00104859 0.00073556 0.00307493 -0.00169157 0.00067322 0.00921287 0.01449547 0.00076626 -0.03578642 0.00562228 0.01011590 0.00784077 0.10943275 -0.00322294 0.00323933 0.00091766 0.08588513 -0.00056667 -0.00188818 -0.00124294 0.00224328 -0.01136235 -0.00568057 0.00254617 0.00137266 -0.00735434 -0.00261117 -0.00933359 -0.01056486 -0.00161468 -0.00033977 0.00422731 0.00218364 -0.00450042 -0.00179606 0.00065006 -0.01118380 0.00973491 0.00325538 0.00389427 -0.01296505 -0.00959261 0.01407577 -0.00243991 0.02153698 0.01449267 0.02227440 -0.00537946 0.00249418 0.01735427 0.00020937 -0.00918904 -0.01736851 -0.01166284 -0.01628125 -0.00300671 -0.00314929 -0.00285123 -0.00677165 0.01045004 -0.00860483 0.00196332 -0.03144588 0.00008382 -0.00549157 -0.00068618 0.03786778 0.00053676 -0.00873401 0.00429596 -0.00198485 -0.00046337 0.00994032 0.01308503 -0.00395659 -0.01288074 -0.00332466 0.00251647 -0.00016556 -0.00667505 -0.00024844 0.01474311 0.01635982 -0.03115045 -0.00347105 0.00457776 -0.02760426 0.03062852 -0.00483418 -0.00654305 -0.01223555 0.01717998 -0.00230101 -0.00186382 0.01991528 -0.01180160 -0.02855401 0.00014656 -0.00448324 0.00506394 -0.00141214 -0.00393035 -0.00110711 -0.00118413 -0.00814741 -0.01523807 0.03185786 0.00100619 0.00591559 0.04880728 -0.01441700 -0.00954375 -0.00172105 -0.00408304 -0.00647400 -0.00328649 0.00236401 0.01242037 0.00335987 -0.00403887 0.00356375 0.02947684 0.00654275 0.01463434 0.00498164 -0.00190073 0.00735947 -0.00584297 0.00777991 -0.00556800 -0.00518992 0.01079725 -0.01980486 -0.00234455 -0.00295373 0.01824294 -0.01807739 -0.00354997 0.00100754 0.00752707 -0.00844251 -0.00413098 0.00314681 -0.00082702 -0.00353070 -0.00590860 -0.00505151 -0.00313508 0.01116162 -0.00740764 0.00223313 0.00051042 0.00053456 -0.06063163 0.00989064 -0.00395822 -0.01977551 -0.00258282 0.00271349 0.00522662 -0.00895245 0.00178574 -0.01061826 -0.00315095 -0.00619895 0.00768063 0.00277100 0.00168755 -0.00243673 0.01382392 -0.01123426 -0.00378298 -0.00085767 0.00320148 0.01164110 -0.00271018 -0.00028319 -0.00124217 0.01461609 0.00972464 -0.00585322 -0.00033971 -0.00789666 -0.00719800 0.01017653 -0.00079600 0.00386050 0.00193546 -0.03000437 0.02341019 0.00016757 0.02527167 0.00424835 -0.00335512 0.00414666 -0.00370438 -0.00518292 -0.02307488 -0.00518425 -0.02013798 0.00362799 -0.00046238 -0.02693137 0.00664735 -0.00830224 0.00858133 -0.00559731 -0.01079947 -0.00547261 0.00742825 -0.00765015 -0.01229090 -0.00604593 -0.04401907 -0.00504421 0.00545506 0.01049910 0.00097972 0.00869688 -0.02501943 -0.06840298 -0.00629768 -0.00270400 0.00655190 -0.01779420 -0.02217420 -0.02236136 0.02055715 0.00833213 0.01509179 0.00585514 -0.00662115 0.00420969 0.00221381 -0.00495847 0.00454426 0.00290414 0.00426192 -0.01108051 -0.01033502 -0.04365866 0.00503146 0.00802063 -0.00061523 0.01683175 0.00403668 0.01845514 0.03291810 0.00555501 -0.02311141 0.00185933 -0.00405487 -0.00019266 0.00208361 -0.00933869 0.02047854 -0.01829650 -0.00330457 0.00619512 0.00462908 -0.00334069 -0.01418021 -0.00074153 0.00888422 0.00678846 0.00413669 -0.00173147 -0.00470899 0.01475477 -0.00699259 0.00528840 -0.00919691 0.00692423 0.08715576 0.01254638 0.00615060 0.00030514 0.00116155 -0.00043228 0.00814963 0.01507917 0.00751587 -0.00521192 -0.00589761 0.00156322 -0.00937679 0.01490914 0.01091355 -0.01583093 -0.02102790 -0.01000796 0.01218412 0.00449937 -0.00230229 -0.00483887 -0.00365086 -0.00930520 0.00104824 -0.01562867 -0.00114926 0.00020247 -0.01570024 0.00178900 0.00727813 0.00397731 -0.00421852 -0.00384901 -0.00189017 0.00023869 -0.02396497 0.00442837 0.00516433 0.00532819 -0.00437244 0.01434946 -0.01039276 0.01064593 -0.00277884 -0.01559725 -0.01076472 -0.00610672 -0.01284950 0.00891527 0.00532708 0.00221709 -0.00584655 0.01139645 -0.01184046 -0.00017401 -0.01043250 0.00807409 0.01360278 -0.00379852 -0.01766333 -0.00112931 -0.01767446 -0.00383885 -0.00297033 0.00810381 -0.00404033 0.00428928 -0.00034137 0.00820240 0.00522854 0.00247032 -0.01057914 -0.00478416 -0.02279474 0.01924987 0.01035697 0.00627450 0.00057330 -0.00709395 0.00806171 -0.00380693 0.00103353 -0.01227261 0.07233253 0.06343081 -0.05281538 -0.00446554 -0.02103909 -0.01438989 0.01664619 0.00689235 -0.00028247 0.01540129 0.00249535 -0.00114977 0.00906863 -0.00120796 0.00793116 0.00687048 0.00531795 0.00490161 0.01327637 0.00258243 -0.00828476 0.00260991 0.00412536 -0.00643604 0.00586354 0.01461029 -0.00947736 0.10977557 0.00017070 -0.00278489 -0.00653632 0.00154566 -0.00405609 0.00336501 -0.03005587 0.00507210 -0.00215048 0.01251998 -0.00673996 -0.01053808 0.01254748 -0.00738971 0.00066950 0.00017798 -0.01357939 -0.00387657 0.00633850 0.01729590 0.01100342 -0.00640552 0.00649794 -0.00872639 0.00996078 0.00710537 0.00650098 0.00109357 -0.01063415 -0.00079322 0.00015855 0.00139816 -0.00603411 -0.02187026 -0.00280973 -0.00951429 0.00089015 0.00274049 0.00960381 0.00103682 0.00251225 -0.00429240 -0.02735151 0.03565359 -0.00071781 0.00401983 -0.00782698 -0.00307855 0.00119419 -0.00304999 -0.00094045 -0.04257581 0.00489094 -0.00003110 -0.00129060 0.01735103 -0.00568838 0.00097834 -0.01145341 -0.00002402 -0.00891010 0.00301499 0.01471644 0.01028458 0.00196191 0.00887661 0.00469925 0.01546902 0.00112894 0.03188862 0.02121249 0.00375972 -0.00540183 0.00126780 -0.00833165 -0.00604438 -0.01162681 -0.01143753 -0.00778224 -0.02437931 -0.05336170 0.00652813 -0.01020936 0.00267755 0.00769892 0.00877003 -0.00558330 0.00003702 0.00395532 0.01028244 0.02125270 -0.00965558 -0.00417216 0.01654145 -0.00443087 0.00014351 0.01108017 -0.01191526 0.00358721 0.01096237 0.00314081 -0.00527001 0.00454620 -0.00646136 -0.00263346 -0.00126961 -0.00230716 -0.00526263 -0.00072081 0.00507006 0.00713349 -0.01674143 0.00999005 0.01603562 -0.00082207 -0.02018549 -0.00292535 0.01231995 -0.00811703 -0.00290869 -0.00986736 -0.00095910 0.00143934 0.00752193 0.00005084 -0.01377599 0.01340449 0.01627563 -0.00302407 -0.01592396 -0.00080987 0.00709511 0.00556548 -0.00836924 -0.00359015 -0.01166260 0.00100738 -0.00823594 0.00896999 0.01293307 0.00063034 -0.01177332 0.00214778 -0.01538546 0.00591733 -0.01123810 -0.02420298 -0.02967299 0.00657342 -0.00416675 -0.01228269 -0.00521858 0.00655525 -0.00409374 -0.00139129 -0.00243432 0.00253394 0.01151392 -0.00034398 0.00417928 0.00537871 -0.00847675 -0.00150286 -0.00500503 -0.00657498 -0.00121641 -0.01699332 0.00930733 -0.00302378 -0.00088847 -0.00806456 0.01538737 0.00963371 -0.00575339 0.00899077 0.00770608 -0.01147598 0.00298610 -0.00096698 -0.00864524 0.01301426 0.01731150 -0.00717951 0.00564683 0.00446750 -0.01775692 -0.01266075 -0.00396180 0.00184013 0.00534982 -0.00576631 -0.00359169 0.08799739 -0.00043451 -0.00360414 -0.02535370 0.00196496 0.01589101 -0.00825014 -0.00276275 -0.00511168 0.00846646 -0.00286859 -0.02481726 0.01514238 -0.01817391 0.01622129 -0.00180811 0.00215308 -0.00626033 -0.00896738 0.00652429 0.00606688 0.00305319 0.00360452 -0.00896280 -0.01765443 0.01140096 0.01817959 0.00680590 -0.01490502 -0.00145667 0.00039614 0.00500687 0.01046728 -0.00455942 -0.01253583 0.00640724 0.01409348 -0.00595081 0.00447352 -0.00239887 0.00738994 0.00146556 -0.02211701 0.00781212 0.00423275 -0.00689425 0.01189604 -0.00091417 0.00672984 0.00660473 0.00204687 0.02113832 -0.00024920 -0.00489124 -0.00553742 0.00129229 -0.00490844 0.01944853 0.00318960 0.00365819 -0.00024214 0.00019453 -0.01166102 -0.01653227 -0.00612496 0.00833456 0.00383750 0.03199820 0.01581290 0.00090341 0.01817190 0.02674427 -0.00878636 0.00152060 0.00153622 0.01943431 -0.00693544 -0.00946729 0.01235723 0.00877375 -0.00837335 0.00858810 -0.00415558 0.01342181 -0.00228945 -0.00301319 0.01557036 0.01204619 -0.01000428 0.03158019 0.02266078 -0.00176095 0.01294093 -0.01600554 -0.00166667 -0.00034050 -0.06760386 0.01878374 -0.01775745 -0.01432929 -0.00862392 -0.00109472 0.00633434 0.00385426 -0.00350288 -0.01338312 0.00577595 0.00792670 0.00912346 -0.02027431 0.00388384 -0.01421576 0.01086436 0.01525117 0.00435459 0.00629818 0.02002933 0.00046633 -0.03333425 -0.00867066 0.01331826 0.01810234 -0.00626706 -0.00228112 -0.02516141 -0.01619265 0.00224657 -0.01457298 -0.00259048 -0.01146982 0.00304114 0.01148435 0.00168064 0.00895965 0.00182489 0.00111481 0.01877914 -0.02373026 0.00540987 0.00412017 -0.00960009 -0.00136690 0.01341269 -0.00428063 -0.00281632 -0.00591192 0.01503654 -0.00990051 0.00171899 -0.00469215 0.00060598 -0.01009870 0.00903919 -0.00324246 -0.01110255 0.00018527 -0.00687074 -0.00329641 -0.01604007 -0.01568169 -0.00953246 -0.01311973 0.00525595 -0.00056646 0.01401803 0.00957753 -0.01336896 -0.00517085 0.00815250 -0.02256045 -0.01898917 0.01241373 -0.00300242 -0.00008872 0.00230608 -0.00033325 -0.01100051 -0.00649697 0.00702118 0.01101602 0.01269532 -0.00763460 -0.02368069 0.01372233 -0.00432801 -0.01426292 -0.01634319 0.02082773 0.00321176 0.01386763 0.00930244 0.03681735 -0.01130056 -0.00725809 -0.00482846 -0.00177724 -0.00036356 -0.01781873 0.00518937 -0.00282887 -0.00053501 -0.01323169 0.00583035 -0.00605494 0.01099240 0.00319307 -0.00477578 0.01203775 0.00021933 -0.00350688 0.00870642 -0.01129160 -0.00261256 -0.00013817 -0.00061771 -0.00356981 0.01395120 -0.00844132 -0.01779240 -0.00796089 -0.01087482 -0.02091946 0.00156229 -0.00132735 -0.01294103 0.01468350 -0.00687040 0.00246590 -0.02643913 -0.00358454 0.00459516 0.01615087 -0.00997866 0.00674127 -0.00784278 0.00736959 0.00441537 -0.00083223 0.00724024 -0.00827898 0.00451894 0.01414123 0.00694990 0.01559819 0.00803068 -0.01427347 0.00860027 -0.01054287 0.00741220 0.00343441 0.00014374 0.01920564 -0.00800822 -0.01689666 -0.01557896 0.00369984 0.00084554 0.00839206 -0.00144034 0.01250595 0.00708335 0.00292495 -0.01292316 0.00386182 0.00698020 0.00673275 0.00901682 0.01665233 0.00141529 -0.00153570 0.00712712 0.01071368 0.00012527 -0.00154066 -0.01944018 0.02059000 -0.01195347 0.00684364 -0.00075547 -0.00841487 -0.02093494 0.00637650 0.00537359 0.00894683 0.01654226 0.00691164 0.00119313 -0.00055978 -0.01108739 0.00496793 -0.01978226 0.00112620 0.00407700 -0.00282255 -0.01572456 0.00501933 -0.00373376 0.00265973 -0.00800954 -0.02216543 -0.01387262 0.01663603 -0.00173696 -0.01114533 -0.00473938 0.01374701 0.01740666 0.01048924 -0.00737970 0.00543398 0.00759108 -0.00548450 -0.00649270 -0.01053848 -0.00106704 -0.00146506 0.00448520 -0.00375940 -0.01217034 -0.00284041 -0.00593974 -0.00927748 -0.00534347 -0.00159018 0.00701318 0.00913257 -0.01168364 -0.00281339 -0.00667783 -0.01798596 0.01672773 0.00786097 -0.02848903 0.00091846 0.00859781 -0.00186235 -0.00229368 -0.00208637 -0.01538127 0.00894099 0.00186434 0.00711894 -0.00528718 0.00630202 0.01870151 0.00082404 -0.00341140 0.03425583 0.01010419 0.01823466 -0.01239207 -0.00490148 0.00436957 -0.00090491 -0.01060685 -0.04183666 -0.03137774 0.00187903 -0.00625560 -0.00250394 -0.00303685 -0.00909297 0.00039349 0.00206280 0.00845663 0.00030172 0.00062760 0.00059920 0.01430747 -0.00150258 0.00430085 -0.00337221 0.00604383 0.00347049 -0.01823041 0.00548174 0.01023902 0.02056873 0.00398736 -0.01037469 -0.01766989 0.00613973 -0.01783290 0.00034723 -0.01268649 -0.00236073 -0.00534935 -0.00218473 0.01659790 0.00741018 -0.01592175 -0.01494779 0.02164071 -0.00221694 -0.00211375 -0.00972505 0.01279961 0.00043896 -0.00593351 -0.00448840 0.00611062 0.00711489 0.00653002 -0.00152939 0.02428229 -0.02497434 0.00121052 -0.02533278 0.00007472 -0.01370908 0.00759352 0.00290439 0.00482369 0.00090886 -0.00231519 -0.00442093 -0.03319148 0.00148053 -0.00252186 -0.03067344 -0.02246686 -0.00097494 -0.01839551 0.01384021 0.09006899 -0.00128735 -0.01993115 0.01596008 -0.02427050 -0.00263396 -0.01245521 0.00161506 -0.01906543 -0.00858202 0.00923781 0.00910894 0.02425041 0.00570651 -0.00922791 0.00515312 -0.00182574 -0.01391912 -0.00097063 0.01177745 0.01092352 0.01624564 -0.01348728 0.01232173 -0.00086103 -0.00312557 0.00166487 -0.00137224 0.00539790 -0.00495774 0.01005988 -0.01106485 -0.00321597 0.01651720 0.01299292 0.00820990 -0.00253773 0.02735699 -0.01023781 -0.02008966 -0.00114090 -0.00040816 0.00097981 0.00661163 0.01015847 0.00065608 -0.02992313 0.01784514 -0.00742658 -0.01108436 0.01065241 -0.01575032 0.00474471 0.00788797 -0.00558451 0.00470107 -0.00331972 -0.00022438 -0.00301624 -0.00609821 -0.00493969 0.02558511 0.00001874 0.01680454 -0.01667682 0.00201233 0.00788338 -0.00210091 -0.00922653 -0.03513476 0.00915851 -0.00471588 -0.01157189 0.00570566 -0.03049649 -0.01105752 -0.02116741 0.01377626 0.00530151 0.00761491 0.00734322 -0.00355969 0.00281660 0.00332113 -0.00127715 -0.00726376 -0.00123265 -0.06296334 0.00264718 -0.00203178 -0.01923529 0.00130567 0.01526859 0.02638328 -0.01108358 0.01278366 0.00734062 0.00795640 0.01013405 -0.00581616 0.00079356 0.00583716 0.00885635 0.01579390 0.02206180 -0.00492082 -0.00862232 -0.01041801 -0.00113214 -0.00476989 0.00773226 0.01605733 -0.01274855 -0.01560465 -0.00272638 0.00212090 0.00503122 0.00605819 -0.00974399 -0.00543555 0.00300120 -0.00200930 -0.00425893 0.00028037 0.02313500 0.00480902 0.01399859 -0.00791014 -0.01202100 0.00166927 -0.01460001 0.00051490 -0.01001014 -0.01809285 -0.00345086 -0.00637041 -0.00650146 0.00870394 -0.01277119 -0.00138784 0.00320466 0.01610087 0.00829660 -0.00615269 -0.00311015 0.03210665 -0.00088684 -0.02006729 -0.00771099 0.00147864 -0.00542209 0.00851104 -0.00726577 0.01122798 0.00651072 0.00462276 0.00144976 0.00891476 -0.00230510 0.00317987 -0.01603104 -0.01555981 -0.00591917 0.01183370 0.00704764 -0.01234718 -0.00507793 0.01560710 -0.00959733 -0.00992908 0.00553701 0.01402670 0.00988883 -0.00088675 -0.00992971 0.01105996 -0.00337750 0.01038704 -0.00065518 0.00515333 -0.00264620 -0.03273644 0.03334363 0.00254329 -0.04685066 0.00068652 -0.01281821 -0.01216917 0.00533297 -0.00440224 -0.01646285 -0.00107424 0.00407907 0.02730683 -0.00055733 0.00269762 -0.00456053 -0.00149227 0.01297454 -0.02419266 -0.01191407 0.00241031 -0.03333727 0.01169770 -0.00142156 -0.00467985 -0.00767541 -0.00938271 0.00436518 0.00254464 0.00626053 0.00935379 0.01606667 -0.00215688 -0.00474965 -0.01375615 -0.00320132 0.00270639 0.02342999 -0.00734945 -0.00354072 0.00619484 -0.00718186 -0.01773732 0.00364355 0.01165778 -0.00921345 0.00424887 0.00680239 -0.00678119 -0.01132254 -0.00173247 -0.01888093 0.00182407 -0.01025034 0.01108495 -0.01981245 0.00118362 -0.01619306 -0.00498268 0.00098048 0.00983690 -0.01164802 0.00429099 0.00144976 -0.00889691 -0.01017588 0.00353283 -0.00793833 -0.00812540 -0.01029282 -0.02762445 0.00179430 -0.00496647 -0.07659160 0.00588745 0.00314812 0.00669619 -0.00686455 0.01681154 0.00282692 0.14134683 -0.00705452 -0.01054990 0.00522700 0.00577887 -0.00529980 -0.00408992 -0.00175517 0.02813065 -0.01742158 0.01279025 0.00484823 0.00284727 0.00516030 0.02862388 0.00062490 0.00472334 -0.00529114 -0.00459706 -0.00076203 -0.00567415 -0.00782098 0.00563003 0.02261163 0.02552777 -0.01890637 0.02522050 0.00183934 -0.02192835 0.02176470 -0.00095533 -0.00470665 -0.00525487 0.01572210 0.00248663 0.00368653 0.01863414 -0.01039214 -0.02450331 0.14762816 -0.01600878 0.00104436 -0.01842981 -0.01841257 -0.00350960 0.00924079 -0.01616835 -0.02047481 0.00702171 -0.02528584 -0.00495996 -0.01388003 0.01113389 0.02119216 0.01281990 -0.14789617 -0.00038017 0.14774868 -0.00069924 -0.00739340 -0.01363260 -0.01150394 -0.02834219 -0.00156565 0.00691120 -0.01499180 0.00638558 0.06645762 -0.00215266 0.00036839 -0.04749227 -0.00644825 0.00172872 0.00464141 -0.00322837 -0.00387928 -0.02935633 -0.01667521 0.00441855 -0.00242934 0.00706723 -0.00482829 0.00146609 0.00388332 0.01336887 -0.00494288 -0.00318322 0.02062700 -0.00317977 0.01039148 -0.00837611 -0.00330494 -0.01377199 -0.01274322 -0.02457818 0.00924514 -0.01001091 -0.00729640 -0.00426112 0.01447761 -0.00079433 0.01274667 0.00729097 -0.02439740 0.00024562 0.00057651 0.00209892 0.03769565 -0.00107973 -0.00673482 0.00047604 -0.00307865 0.02371666 -0.02446468 -0.00324515 0.01866260 0.01648708 -0.02832059 -0.00698116 0.02472619 0.02424842 -0.00020350 -0.00690010 0.00009523 -0.00574878 -0.00504110 -0.01494865 -0.03816490 -0.00487512 -0.02431032 -0.02252451 0.00356140 0.00244208 -0.00137702 -0.00342557 -0.02875595 -0.00222287 -0.02906955 -0.00968992 0.00074040 0.00883687 -0.00759448 0.00503768 -0.01055747 -0.00232129 0.01248657 -0.02312336 -0.00107256 0.00062016 0.01211509 -0.02701971 0.00827741 0.02279857 -0.01172529 0.14787933 0.00109333 -0.00133664 0.01503858 0.01703143 0.01018167 -0.01817209 0.00444871 -0.01500009 0.00942644 -0.00161505 -0.02252726 -0.01332274 0.00259012 -0.00178718 0.00264938 -0.00327464 -0.00093155 -0.00188189 0.00272940 -0.14681400 -0.00280613 -0.00040584 -0.00693612 0.00030823 0.00509068 0.00341099 -0.01942004 -0.00234436 0.01032649 0.02267692 -0.00692434 -0.01217171 -0.00201215 0.00263669 -0.04082212 -0.00816735 0.00141799 -0.00575876 0.01528205 0.01961806 -0.00106062 -0.11457573 -0.02297925 -0.00964953 0.03970940 0.01233413 -0.00204122 -0.04067881 -0.00590903 0.01918879 -0.00172493 -0.00685182 -0.00593126 0.01827898 -0.00810802 0.00075464 0.05490723 -0.00713283 0.00082901 -0.00260656 -0.01094515 0.00902724 0.01068748 -0.00033265 0.00381436 0.00301638 0.04736371 -0.00670267 -0.02723945 -0.00101664 0.02755186 0.00666101 -0.00225623 0.03333596 -0.00416748 0.01427941 0.03392290 -0.02898091 -0.04329495 0.02888349 -0.00951059 0.02333563 -0.00204191 -0.01732277 -0.01168867 -0.00029869 -0.00788316 0.03951725 0.00743459 -0.02237732 -0.01310162 -0.00039849 -0.00978133 -0.00014287 -0.00294725 -0.01088368 0.01236513 -0.05060434 0.00518187 0.00429197 0.00557168 -0.00382903 